0.180389 0.328238 -0.0907107 -0.154023 -0.382114 0.0760247 -0.00658398 0.0209455 -0.330682 -0.429498 -0.200392 -0.0590439 -0.215842 -0.364813 -0.406152 -0.0813382 -0.0763769 0.0746127 -0.0774043 0.216146 0.261992 0.214482 0.305032 0.313821 0.298912 -0.189512 -0.0864775 -0.317364 -0.345485 -0.216163 -0.214664 -0.109612 -0.139897 -0.0406711 -0.151689 -0.216831 -0.0912866 0.359331 0.0749338 0.100094 0.0176641 0.322979 0.473953 0.29633 0.0911528 -0.28776 0.227662 0.162166 0.214933 0.278472 0.0900081 0.0920896 -0.0816288 0.274741 0.383295 -0.12615 0.0702879 0.217086 0.319895 0.296764 -0.340301 0.176128 0.357805 0.223091 0.0756265 -0.277863 0.0219481 0.073733 0.0748408 -0.313093 -0.220184 -0.239042 -0.0158965 -0.0610275 -0.119655 0.0295635 -0.148223 -0.21402 0.0456433 0.0323167 0.301919 0.152738 0.044491 -0.170542 -0.197549 0.189065 0.31068 -0.171216 -0.289221 -0.348342 0.230131 0.157702 -0.00337159 -0.288717 -0.165498 0.381505 -0.0401772 -0.360724 -0.175779 0.0940831 -0.0686858 -0.10371 0.20705 0.274769 -0.305221 0.369728 0.0828839 0.206767 0.0490122 -0.367006 0.136922 0.248763 0.370264 0.00520542 -0.505836 0.374252 0.163044 0.110593 0.0367076 -0.345305 -0.00841582 0.0424711 0.0214398 0.0838894 -0.13289 -0.114472 -0.253762 -0.243577 -0.339387 0.0808676 0.059843 -0.162527 -0.0629674 -0.334372 -0.0713704 0.345766 0.364257 -0.0966417 -0.15009 0.0179381 0.330491 0.252198 0.0713543 -0.0939871 -0.247272 0.282224 0.342927 0.114916 -0.132523 -0.205517 0.0325972 0.147273 0.30284 0.120579 -0.256156 0.145344 -1.49779 0.9528 1.38132 -0.667933 -0.672024 0.902796 0.549502 0.301985 0.495137 -0.818703 0.839782 0.416717 0.270952 0.323703 0.549787 -0.320003 -0.331047 0.576715 -0.504063 -0.314323 0.867343 0.553832 -0.157544 0.835478 0.0982796 -0.0120801 0.151116 0.0882132 0.0165694 0.0420893 0.0184778 -0.316705 -0.251795 -0.362637 -0.273966 -0.268295 -0.309592 -0.217768 0.0327675 0.00104732 0.0574904 0.24435 0.372373 0.393456 0.0136746 0.326584 0.24307 0.245241 0.231396 -0.104223 0.0982416 -0.0694744 -0.102051 0.224192 -0.0625929 -0.0498455 -0.327492 -0.304453 -0.195293 -0.0686165 0.149029 -0.0822105 0.0796761 0.166166 0.138366 0.29888 0.30429 0.304808 -0.10331 -0.345969 -0.105859 0.102775 0.092938 0.0866032 -0.0383995 -0.218907 0.0175443 0.221844 0.170331 -0.0402043 0.169698 -0.0515686 0.113277 -0.0817365 -0.309246 -0.0641036 -0.136002 -0.22839 -0.110114 -0.131374 0.162066 -0.0986024 0.0243842 0.0325615 -0.156129 0.345511 0.299485 0.116101 -0.082613 -0.253254 0.115064 0.196363 0.108033 0.00264323 -0.171347 -0.0441354 0.00811154 -0.0560338 0.0110342 0.0976926 0.0714479 -0.0463077 -0.0785076 -0.0556444 -0.046127 -0.0853211 0.0179145 0.0146364 0.0980953 -0.0171446 0.0127488 -0.0276066 -0.100551 0.0653825 0.0628001 -0.0439177 -0.0557799 0.0454116 0.0641522 0.0235941 -0.0234251 -0.015268 0.0759414 0.0526145 0.051622 -0.0150794 0.0117482 -0.0149604 -0.075942 -0.0288472 -0.0919302 -0.0724152 -0.0790988 0.0913261 -0.09514 0.0869852 -0.0819918 0.0588992 -0.0572974 0.0243003 0.0444919 -0.0969266 0.0124745 0.0322372 -0.101824 -0.0773386 -0.0894117 -0.0429569 0.0976108 -0.0290748 0.0142257 -0.0470751 -0.06198 -0.088995 -0.0517375 -0.0726662 0.0509336 -0.0706856 -0.0636227 0.0916439 0.0169953 -0.0269193 0.098184 -0.0939982 0.0724502 0.050334 -0.054344 -0.0420543 -0.00130147 -0.0617576 0.0250579 0.100636 0.0687219 0.0820995 -0.0716939 0.0541762 -0.100566 0.0315681 -0.0898194 -0.096157 -0.00285241 0.0655666 0.0222115 0.0548497 0.0143826 -0.00934119 -0.0381517 0.00664832 0.102069 -0.081607 0.0166582 -0.0739413 -0.0250377 0.00183591 0.0106427 0.0405941 0.140736 0.427391 0.382167 0.153993 -0.175151 -0.402683 -0.249043 0.230292 0.0596001 -0.200026 -0.273472 -0.51276 -0.177214 -0.0517558 0.0125711 -0.0898277 -0.290119 -0.334868 -0.142902 -0.233228 -0.0425135 -0.234845 -0.306688 -0.0707067 0.158885 0.348609 0.398465 0.064806 0.0687468 0.139175 0.223203 0.36885 0.145079 0.0974845 -0.0996116 -0.21419 0.0659572 0.188105 0.173617 -0.303532 -0.309129 -0.300523 -0.217177 -0.00146591 -0.168239 -0.173631 -0.307626 -0.155523 0.0432728 0.0445944 0.333127 0.388466 0.0236559 0.037565 0.0110501 -0.142132 0.308364 0.385217 0.221847 -0.276102 -0.219561 -0.00495016 0.370689 0.227085 -0.075092 -0.0821503 -0.0359992 0.137118 0.326128 -0.0580894 -0.0150798 -0.0355157 0.0187985 -0.0192377 -0.0681084 -0.0303778 -0.0780572 -0.0880443 -0.0762295 0.0403551 0.00118278 -0.101791 -0.0999502 -0.00845072 0.0935779 0.096366 0.0683322 -0.0346376 -0.101309 -0.00583158 -0.0676404 -0.0824311 -0.0350808 0.000642531 -0.0770822 0.080568 0.0646505 0.00718119 -0.0324335 -0.045648 0.0919354 -0.0303763 0.0171322 0.0827802 0.0791354 -0.0540012 0.0720127 -0.0994574 0.0846837 0.0972871 -0.00838074 -0.0146292 0.00968154 -0.0321093 0.0623763 0.0160989 -0.0447619 -0.0780161 -0.00203598 0.094011 0.0207035 -0.0389354 -0.101202 0.0945933 0.0195276 -0.0588257 -0.0138546 -0.0524948 0.0642055 0.0759957 -0.0385941 -0.0553006 0.0820718 0.0658223 0.0162638 0.00916982 -0.0660081 -0.0644936 0.0601465 0.0185581 0.0234025 -0.0943911 -0.0931853 -0.101131 -0.016671 -0.0940623 0.0374063 -0.0210115 0.0874431 0.0160647 -0.104363 0.0767719 0.0995917 0.0597773 -0.0257815 -0.0512409 0.0989702 -0.0872641 0.0218745 -0.0714924 0.0686936 -0.060685 0.0156067 -0.0172582 0.0267542 -0.0318165 -0.0447917 0.0417544 0.0181389 0.0412584 0.0522278 -0.0888373 0.0748493 -0.0968283 0.217398 0.268743 0.0691128 0.200728 0.330391 -0.0540755 -0.109514 -0.415998 -0.165707 0.149768 -0.224535 -0.458253 -0.641878 -0.388043 -0.16461 -0.171654 -0.404055 -0.343598 0.00344893 -0.0972514 0.0520195 0.0251657 -0.0128842 0.112243 0.304571 0.40793 0.364255 0.0186133 0.0195258 0.223556 0.310981 -0.00296165 -0.219574 -0.0526462 0.232751 0.0939927 -0.0234596 -0.0400553 0.203664 0.0488066 0.150133 0.0280021 -0.0417349 0.0616716 -0.0425909 0.0998888 0.26131 -0.0159667 0.0229941 0.152745 0.111921 -0.210557 -0.0259035 -0.00571184 0.00460388 -0.0298727 -0.0595133 0.0945021 0.251855 -0.223954 0.0134564 -0.170631 0.157898 0.10884 -0.357059 -0.101068 -0.177509 0.121821 -0.133897 -0.221442 -0.0908501 -0.0521008 0.0419908 -0.213329 -0.153595 -0.0457023 0.0651452 0.0762647 0.0783269 -0.0891716 0.0393582 0.0334922 0.0145169 -0.0653045 -0.0708208 0.00465552 -0.00691853 0.0843676 -0.0323425 -0.00519042 -0.0574373 0.0724906 0.0193251 0.0707687 -0.0392155 -0.0753519 0.0869634 0.00841934 0.0855701 -0.00687566 -0.0507363 -0.0587652 -0.0812822 -0.0123606 -0.064138 -0.00411975 -8.68663e-05 -0.0348258 0.04775 -0.102585 -0.0609562 0.00114138 -0.0526341 0.0361693 0.0734619 -0.0928615 -0.0175786 -0.0715293 0.0243747 0.0219554 -0.0556353 -0.0377629 -0.0831463 0.0815764 0.00331243 0.060657 -0.00477509 -0.0590125 -0.0725545 -0.0626243 0.0254445 0.0376927 0.00919341 -0.071814 0.0321983 0.00216435 -0.074252 0.101953 0.0525424 -0.0742214 -0.058062 -0.094357 0.00404247 0.0833617 0.0595964 0.0449809 -0.0997819 -0.0396212 -0.0366895 -0.0223641 0.0779009 -0.0875714 0.0720075 -0.0308908 0.00802997 -0.104235 0.076582 0.0260344 0.0939614 -0.0626113 0.0681842 0.026135 0.0739723 -0.0372975 -0.0838198 -0.0945621 0.0316064 0.0466594 0.0425133 0.054156 0.0230286 -0.0195724 0.0625876 0.0426842 -0.0972249 0.199519 0.321633 0.360523 0.215115 -0.0802315 0.375918 0.590583 0.449091 0.170531 0.0270999 0.51423 0.552962 0.418384 0.178915 0.119686 0.227131 0.301144 0.0755112 -0.166472 0.210844 -0.0313104 -0.0078719 -0.0375704 -0.26392 -0.0645315 0.170585 0.0248233 0.0980568 0.176033 0.262373 0.186039 0.0528856 0.000660338 0.348021 0.295102 -0.000993536 -0.0121891 0.0779974 0.383553 0.1658 -0.0880415 -0.0663617 0.142498 0.183883 0.279554 -0.0966123 0.0569396 0.142613 0.312822 0.118283 -0.238685 -0.120662 0.128867 0.125111 0.0993724 -0.163203 -0.199198 0.125212 -0.0138706 -0.110532 0.0286974 -0.0114924 0.148419 -0.028563 -0.208393 0.125434 0.0164827 0.0678751 -0.000397891 -0.253032 0.0145952 -0.201252 -0.0413684 0.00157603 -0.0424606 -0.0214344 -0.242045 -0.354185 -0.0259759 0.0209962 -0.146656 -0.381498 -0.203863 -0.017581 -0.0827376 -0.295999 -0.508671 -0.574695 -0.484155 -0.316821 -0.197317 0.222607 0.282467 0.334641 0.298217 0.455364 0.515118 0.344069 0.36768 0.177742 -0.0585895 0.0959727 0.0497439 0.0634954 -0.0505933 -0.0976945 0.0134128 0.0437396 -0.0767829 -0.00731095 -0.02672 0.0934899 -0.0871387 -0.0581908 0.00119617 -0.0486571 0.0406103 -0.0874272 -0.00898702 -0.014911 -0.0289788 -0.0816733 0.0660118 0.0279471 -0.0948769 0.063287 -0.023432 0.0411103 -0.00866422 0.0556097 0.0492428 -0.0329103 0.0855704 0.072246 -0.0464985 -0.0148797 0.0663797 0.0676835 0.0326533 0.0264242 -0.10209 -0.0744865 0.0491638 -0.0880721 0.0216193 -0.100617 0.0376048 -0.0905082 0.0175386 -0.00865156 0.015358 -0.0807702 -0.0290325 -0.0986428 0.0958193 0.0532388 0.101719 -0.021965 -0.0235766 0.0515838 0.0702257 -0.00994231 0.100716 -0.0104265 0.0178296 -0.00458051 0.0357065 -0.0054304 -0.0864282 0.0633288 0.102661 -0.0203895 0.0583857 0.0845362 0.103269 -0.0440167 0.0690375 0.124388 -0.0245786 -0.114391 0.102156 0.055299 0.216254 0.0224268 0.033074 0.141387 0.0447978 -0.0057274 -0.0864568 0.0805037 0.132152 0.01145 -0.141974 -0.206669 -0.197286 -0.072642 -0.265109 -0.249883 -0.0362038 -0.0250988 -0.023188 -0.108148 -0.196788 -0.292189 -0.122033 0.184887 0.0186807 -0.0886317 -0.115445 -0.233869 -0.0679782 -0.176038 -0.122488 0.180009 0.281166 0.183458 0.349587 0.415857 0.381855 0.371972 0.299354 0.116668 0.0518828 -0.176243 -0.186291 -0.317337 -0.112674 -0.199702 -0.0531239 0.086402 -0.0453257 -0.164464 -0.0950893 0.235274 0.37161 0.131755 0.475497 0.474743 0.311045 -0.0184549 0.342175 0.361421 -0.0192552 -0.10588 0.0856897 -0.0883747 -0.296864 -0.280054 -0.140979 0.105642 0.06976 -0.0940725 -0.0237852 0.0869233 0.106901 0.0950892 0.299995 0.394495 0.235274 0.0590843 0.173352 0.257138 0.100069 -0.183187 -0.0333769 0.00184898 -0.210439 -0.399368 -0.3093 -0.0114184 0.0541213 -0.145081 -0.223619 -0.15804 -0.240074 -0.102494 0.0824494 0.0160338 -0.0617315 -0.039388 0.0667632 0.00360708 0.0707809 0.0869843 0.00476193 -0.0153589 -0.0706189 -0.0527672 0.0937882 -0.0268859 -0.0920281 0.0902128 0.0807371 0.0912588 0.01553 0.0719282 -0.0253081 0.0877783 0.0294341 -0.0568398 -0.0777486 -0.0861721 -0.0194891 -0.0569631 -0.029995 -0.0387755 -0.0728711 -0.0679392 0.0744648 0.0223712 -0.0831379 -0.0180512 0.0946539 0.0660837 -0.0696003 -0.0657741 -0.012658 0.0421706 -0.0709367 -0.0542379 0.0792273 0.0155039 -0.00450157 -0.0315455 -0.0210662 -0.0925471 -0.0469027 -0.056649 -0.0936591 0.0342799 -0.0754701 -0.00057444 0.0582057 0.00397231 -0.0672525 -0.0679487 0.0174297 0.0147721 0.0894322 0.103768 -0.0819563 0.0661847 -0.00989228 0.0197138 -0.0718608 0.0994309 -0.040899 0.0838837 0.0551737 0.0199718 0.231938 -0.049578 -0.2209 -0.408711 -0.235273 0.0845324 -0.0660813 0.102962 0.491556 0.288052 0.294029 0.311103 0.350102 0.140738 0.132083 0.339218 -0.0820383 0.00689781 -0.0763255 0.209702 -0.101862 -0.0013839 0.159886 0.0900103 -0.0555377 -0.099154 0.0105655 -0.0450671 0.209928 0.0632721 -0.0151357 -0.110014 -0.164392 0.224134 0.0770808 -0.200022 -0.323258 -0.0951154 0.27319 -0.132986 -0.172625 -0.409714 -0.0701724 0.0826918 -0.148137 -0.160385 -0.108217 0.202356 -0.0945581 -0.099701 0.152684 -0.0871134 -0.0558176 0.10882 0.026604 0.0841405 -0.23063 -0.0181089 0.374471 -0.0489356 -0.240157 -0.38127 -0.0500057 0.207724 -0.122351 -0.206788 -0.272158 -0.0449017 -0.0126486 -0.195359 -0.275095 -0.267563 0.0455509 -0.0380808 0.173434 0.0641624 0.0111482 -0.0901942 0.120445 0.205816 0.0651476 0.00953733 -0.020269 0.144773 0.135491 0.0864068 -0.18557 0.0235121 0.300494 -0.0660567 -0.0557822 -0.106871 -0.049521 0.136192 -0.0658341 0.0452259 -0.0715562 0.00372627 -0.0646737 -0.0232837 0.226368 0.0854749 -0.0748829 0.125883 0.221441 0.196298 -0.0158072 0.0508045 0.321204 0.13604 0.13799 0.0572861 0.13885 0.338912 0.117267 0.134447 -0.134439 0.173109 0.22506 0.0664888 -0.113686 -0.0589622 0.114511 0.0717586 -0.00769505 -0.0305956 -0.0969077 -0.0598075 0.071777 0.0558339 -0.0104517 -0.0399734 0.0995336 0.0487233 -0.0924463 0.0510688 -0.0703783 -0.0581983 -0.0663039 -0.05972 0.00862575 -0.0628877 -0.0474817 -0.0746755 -0.00140621 -0.0256766 0.0488691 -0.0988842 -0.0658524 -0.0812761 0.0878808 0.0364652 0.0334361 0.0626213 0.0397054 -0.0876245 -0.0693345 -0.0560456 0.0388027 -0.061075 0.0212662 0.0871781 0.0323703 0.0441422 0.00369617 0.0112561 -0.0899317 -0.0408349 -0.00546525 0.0699487 -0.00318692 -0.0135141 0.0246282 0.0884571 -0.0834066 0.0430428 -0.0985413 -0.00458911 -0.0902484 -0.0780822 -0.0259271 0.0994422 0.0569932 -0.0710584 -0.0193998 -0.0621244 0.0908591 -0.0143757 0.00682607 -0.0200116 -0.0111945 -0.0737912 -0.0357585 0.0479032 -0.0325737 -0.065019 -0.0945317 0.0300588 -0.0107355 0.0531228 -0.00738932 -0.242272 -0.138867 0.120874 0.263665 0.00324507 0.274815 -0.108356 -0.307749 0.067348 0.110095 0.206059 0.163676 -0.073385 -0.187834 0.0534084 -0.125414 0.229045 0.330089 0.0338239 -0.0615538 -0.182206 -0.0148344 0.168936 0.135488 0.0199349 0.0657152 0.0971512 0.0386511 0.0111599 -0.0349322 -0.0788753 -0.0321753 0.234182 0.259016 0.0499144 0.143519 0.00841007 -0.109653 0.0951088 0.202555 0.159713 -0.00450484 -0.206558 0.060133 -0.068441 0.237349 0.203683 0.0229704 -0.133295 -0.0322629 -0.155163 0.0314741 -0.0293987 0.173971 -0.0335331 -0.119735 -0.311081 0.0429267 0.290704 0.140766 -0.0907868 -0.187984 -0.2767 0.19286 -0.112107 0.182026 0.140995 -0.35115 -0.083377 0.0325883 -0.00710069 0.0551404 -0.0233248 -0.0858494 -0.228742 -0.171277 -0.0230803 -0.0326333 -0.108779 -0.151358 -0.0611618 0.0359366 0.0841119 0.0527187 -0.20668 -0.192685 -0.044234 0.124092 -0.0171359 -0.0318383 -0.00341624 -0.0145415 -0.0115717 0.0841297 -0.0324991 0.0504057 0.0939678 -0.0711411 0.0505543 0.0510684 0.101799 0.099792 -0.0463565 -0.0176297 -0.103654 -0.0853207 0.0906393 -0.0498632 0.0747623 -0.0566404 0.0478054 0.0692357 0.00348617 0.00560129 0.0432318 -0.0976159 0.0586007 0.0544884 -0.0261376 -0.0160067 0.0564685 -0.0674705 0.0523537 0.0420374 0.0236491 0.0203875 -0.0204995 -0.046879 0.0412163 -0.0915286 -0.103796 0.0427989 0.057424 -0.0296223 0.0828087 0.0466327 -0.0544552 0.0056348 -0.0792191 -0.0846138 -0.0584308 -0.0299858 -0.0413406 0.0856428 0.080012 -0.0671244 0.00901718 -0.0642498 -0.0445545 -0.0623949 -0.0755452 -0.0789294 -0.0438374 0.0270875 0.0237869 0.0939925 -0.0367363 -0.0960709 -0.00890717 -0.00747148 -0.0116736 -0.0898861 0.0685452 0.0196034 -0.0153854 0.0205928 -0.0322325 -0.0312391 0.0365504 -0.0497183 -0.0581805 -0.0389954 -0.00684213 0.084583 -0.0167133 0.0143073 0.0168002 0.0135064 0.0790265 0.161098 0.0353867 0.0101092 0.124889 0.0649946 0.11783 0.0324443 0.0315922 0.147676 -0.0641491 -0.0348305 0.0528939 -0.0347829 0.204247 0.0106217 0.0888607 0.0649546 0.143713 0.364019 0.188634 0.059095 -0.0618933 -0.11975 0.0290305 -0.0153681 -0.177892 -0.172801 -0.222601 -0.057531 0.00744585 0.0124991 -0.245535 -0.359749 -0.162293 -0.150287 0.021691 -0.0794721 -0.0405292 0.264993 0.123508 -0.0170095 -0.0676009 0.168818 0.278326 0.234925 0.027023 0.0874635 0.128482 -0.0701292 -0.111491 0.0330779 0.140556 0.0947178 -0.0448644 -0.0856589 -0.000205941 0.0174113 0.147022 0.133224 -0.0399221 -0.0638224 0.101181 -0.033524 0.0863784 0.012355 0.014064 0.0285822 -0.0289779 0.0589227 0.0960631 -0.0618517 -0.000577861 0.140962 0.107811 0.215298 0.1008 0.300876 0.427415 0.138648 0.0745095 -0.165729 0.240013 0.297936 0.0433885 0.148361 -0.153471 -0.0723891 0.0796389 -0.0221095 0.0837548 -0.178416 -0.175601 0.0230398 -0.0301097 -0.0337286 0.108547 -0.0702779 -0.23976 -0.0966204 -0.247321 -0.180539 -0.411162 -0.280119 0.00805426 -0.106697 -0.193685 -0.113997 0.475246 0.232103 -0.263767 -0.0170076 0.460626 0.493449 -0.0586758 -0.443649 0.372722 0.152934 -0.109764 -0.377807 0.0472682 0.0316567 -0.0668888 -0.0744272 -0.0372206 -0.0394876 -0.0683907 0.0950008 -0.0190851 0.0872139 -0.0540159 0.0728091 -0.0194434 0.0052791 0.0992707 -0.0842312 -0.0375341 -0.0738803 0.100789 -0.0177343 0.0284734 0.00519563 -0.0260926 -0.045531 0.0746761 -0.0496709 0.0249809 -0.00898697 -0.0517986 -0.0217242 0.0611756 0.0480366 -0.0140087 -0.103192 -0.0297649 0.0237553 -0.035454 -0.0979298 0.041229 -0.0913469 -0.0483274 -0.0506332 0.0643972 0.019195 -0.0427628 -0.0860208 0.00921666 0.0754195 -0.00252312 -0.0893092 0.0742315 -0.337517 -0.0876808 -0.0646421 0.142897 0.179157 -0.265302 -0.0259575 0.526932 0.551065 -0.072307 0.0522561 0.593952 0.561042 0.0760204 -0.208332 0.320071 0.426509 0.0621039 -0.207407 -0.19613 -0.0980007 -0.25743 -0.19379 -0.0027355 0.0444655 0.267332 0.0620432 0.0888502 0.137174 0.0507655 0.330648 0.148195 0.280823 -0.0116567 -0.0595445 0.223792 0.195594 0.0507932 -0.228251 0.303543 0.245913 0.0121975 -0.0936232 0.203917 0.363338 0.150702 -0.111262 0.142024 0.41016 0.218599 0.0977115 -0.184702 -0.271403 -0.642658 -0.047792 0.0127841 -0.387792 -0.200596 -0.0267603 0.420959 0.00141043 -0.183178 0.366988 0.4919 0.04177 -0.0187434 0.0979717 0.160655 0.139231 -0.0918672 0.222051 0.131972 -0.11895 -0.314868 0.13794 0.07517 0.17521 0.0258135 0.0229595 0.109108 0.0190844 0.0464332 0.159774 0.232206 0.343533 0.0455435 0.485426 0.487667 0.306942 0.182703 0.00257721 0.0306992 -0.132957 -0.0633426 0.00159414 -0.35594 -0.125508 -0.0231561 0.168477 0.0969589 -0.212229 -0.0958833 -0.0506161 0.018539 0.12323 -0.114691 0.226875 0.268538 0.120384 0.144701 -0.20241 0.242798 0.144907 -0.00715188 0.0622421 -0.138785 -0.227502 -0.113693 0.0126652 0.211858 0.155883 0.186253 0.165452 -0.0672162 -0.0507953 -0.0150325 0.0315221 0.0207368 -0.0911744 0.0731063 -0.0407287 0.0524575 -0.00173011 0.0165779 -0.0184772 0.0887178 -0.0380467 -0.0909228 -0.00244774 0.102639 -0.0913457 -0.0933764 -0.0807797 -0.0627733 0.093759 -0.0161364 0.0526172 -0.0819887 -0.0832635 0.0258339 0.0177429 -0.0944213 0.085131 -0.0449906 0.0299332 -0.0916964 0.0343719 0.0425138 -0.0574448 0.0351893 -0.0874328 -0.0253637 -0.0854398 -0.0651341 -0.103644 0.0515976 0.0955535 -0.0333437 -0.0909119 0.0616864 0.0553427 -0.00252741 0.00955787 0.00536218 -3.9503e-05 -0.0454834 -0.0496691 0.0278633 -0.0941719 -0.0446346 -0.0360238 -0.0104917 -0.103695 0.0553079 0.109572 0.0346167 -0.0494819 -0.0286197 0.118159 0.24163 0.0324859 0.0595649 0.193983 0.297722 0.252473 0.0719598 0.228605 0.211606 0.132463 0.0728115 -0.165066 -0.284231 -0.0803834 -0.0837039 0.074735 -0.237155 0.0182531 0.532264 0.481706 0.550381 0.0426829 0.251725 0.617235 0.528484 0.23574 -0.00445932 -0.0661351 -0.00113383 0.27133 0.0869339 0.135967 0.181374 0.215843 0.155176 -0.189309 0.0690049 -0.00909735 0.0888123 -0.0212909 0.2871 -0.0215576 0.0957267 0.318803 0.218719 0.202712 0.0795002 -0.0616278 -0.0530115 -0.0573561 -0.0127043 -0.407838 -0.569757 -0.347271 -0.284165 -0.103068 -0.274515 -0.140885 0.00607525 -0.235375 -0.171847 -0.159541 -0.0295761 0.0418415 0.128302 0.105939 0.127451 0.159986 0.142813 0.0947669 -0.104513 -0.291764 -0.588225 -0.242844 -0.319931 -0.0683594 -0.271452 -0.0373489 0.093445 -0.20344 -0.210724 -0.064021 0.13893 0.0994958 -0.366039 -0.33496 0.13261 -0.0282881 -0.0536737 -0.121076 0.155408 -0.0206936 -0.100169 0.0969297 -0.0177269 0.22221 0.120371 0.0987133 0.198829 0.220705 0.0604581 -0.174005 -0.176593 -0.0350184 -0.0734406 -0.0286964 -0.135397 -0.0352481 0.00103591 -0.0797733 -0.0979954 -0.0481713 -0.0248413 0.0928027 0.0332861 -0.0408497 -0.0896322 0.0176576 -0.0725687 -0.0157599 -0.100984 -0.0328887 -0.0806753 -0.0173279 0.0317077 0.0544875 -0.0203343 0.0757341 -0.0373864 0.00329036 0.0120974 -0.0435859 0.103081 -0.0595158 0.0698719 0.0957023 0.0416999 0.103987 0.0873714 0.0104009 -0.0961475 0.0516764 -0.0897544 0.0493106 -0.00542991 -0.0417983 -0.0315079 0.0749376 0.091339 -0.0329643 -0.00217981 0.061271 0.00828243 -0.00544138 0.0825672 -0.0507833 -0.0111476 -0.0844698 0.0787599 -0.0823594 -0.0514751 -0.0242466 -0.0265951 0.267329 0.43665 0.416385 0.0525843 0.294653 0.448594 0.377771 0.370663 -0.0664156 -0.329383 -0.1405 -0.345546 -0.138531 0.0511118 -0.351993 -0.347525 -0.0240582 0.0764808 0.120169 -0.287763 -0.359432 0.0210094 0.0135501 -0.186263 -0.27182 -0.076835 -0.16824 0.0746689 0.0117144 -0.00485177 -0.281555 -0.26348 0.0707339 -0.0687424 -0.176017 -0.507655 -0.0433826 0.309195 -0.247834 -0.0906273 0.0261324 0.227079 0.228566 0.136106 0.305276 0.179544 0.356427 0.209028 -0.0971762 -0.0339472 -0.09149 -0.0759119 0.115165 -0.0711556 -0.294565 -0.320122 -0.146678 0.331476 -0.32514 -0.352753 -0.102507 0.156652 0.290598 -0.132169 -0.0488889 0.121294 0.229533 0.0752849 0.367059 0.248501 0.260406 0.265277 0.0564208 0.0559393 -0.0700371 0.00752193 -0.0307816 -0.0961201 0.0608416 -0.0762892 -0.095523 -0.0640432 0.027934 -0.0343287 0.0551819 -0.0935188 0.0659734 0.0219582 -0.00972734 0.00251946 0.044203 0.0245368 -0.0707055 -0.0141305 0.0245155 0.0726323 0.0775756 -0.00959675 0.218311 -0.0306477 -0.0341293 -0.0137536 0.285719 0.119169 0.0857989 -0.155564 0.0194478 0.541815 -0.217485 -0.275692 -0.0775652 0.232312 0.361823 -0.17092 -0.0700275 0.214026 0.307923 0.367857 -0.0977308 0.0864898 0.34253 0.296335 -0.0111898 -0.216611 0.0678221 0.232476 0.170453 0.117106 -0.185197 -0.0512242 0.0840946 0.161235 -0.0615005 -0.0251096 0.0834085 0.277005 0.181071 -0.198256 0.309696 0.177808 0.17564 -0.141899 -0.272924 0.000152014 -0.0997088 0.018594 -0.311401 -0.203978 0.0900561 -0.0551865 0.0683255 0.092086 0.0333727 0.0384819 -0.0502269 -0.090887 0.00106454 0.0773792 0.0370821 0.042067 0.0229069 0.0219185 -0.000678338 0.0485415 -0.101923 -0.0515049 -0.00609633 0.0209915 -0.048872 0.0657218 0.0405586 -0.0931426 0.00886773 -0.0771838 0.0599338 0.0715346 0.0157651 0.0247216 0.0416478 0.00653581 0.0703682 -0.0525803 0.0061528 -0.0428067 0.0943078 0.0778516 -0.0391626 -0.0163634 0.0523328 -0.0909875 0.00383406 0.0829275 -0.087896 -0.0619617 -0.0416968 0.0681467 0.0260758 0.0797493 0.481391 0.412029 0.148321 0.369283 0.401059 0.254882 -0.056417 -0.127517 -0.0592765 0.188366 -0.277409 0.000345216 0.285866 0.0938082 -0.238304 0.201824 0.254453 0.501724 0.451693 0.039351 0.250701 0.106943 0.176235 0.0766536 0.158485 -0.070144 -0.0480036 -0.161705 -0.0286726 0.0509304 0.372513 0.189222 0.210132 0.315741 0.156153 0.108211 0.115571 -0.00659937 -0.149331 0.0463538 -0.138472 0.0919437 -0.12475 -0.44686 -0.277515 0.0433402 0.156319 0.246301 0.0711278 -0.131539 -0.049335 -0.0642229 0.0303542 0.0528345 0.033617 -0.102918 -0.0136851 -0.0358761 -0.0137576 0.0872351 -0.0670111 0.0184593 0.031425 0.0741968 0.0863331 0.0218653 -0.0937084 0.0673844 0.048921 0.0792715 -0.035905 -0.0373947 0.085151 -0.0787622 -0.0867967 0.0301038 -0.0627835 0.0242837 -0.0237154 -0.0857281 0.126109 0.00593823 0.203285 -0.0738057 -0.0719654 0.0685175 0.302898 0.203674 0.179597 0.0239365 0.115493 0.111889 0.0757357 -0.0522198 0.054936 0.101273 -0.103268 0.0026354 -0.0635234 -0.168194 -0.139501 0.038372 -0.155013 -0.141616 0.00148587 -0.0860898 0.0510002 0.00475238 -0.193989 -0.492547 0.0392138 -0.232559 0.133815 -0.0556037 -0.181496 0.316767 0.129113 0.258841 0.432609 0.508575 0.223617 0.201206 -0.106686 0.000806372 0.413647 0.0793104 -0.0367107 -0.0504759 -0.329407 0.0847262 -0.0991773 0.0137671 -0.12206 -0.213459 0.150801 -0.175166 0.0760014 0.151507 -0.151465 -0.145495 -0.293453 -0.101035 -0.182173 -0.188451 -0.197141 -0.0755144 -0.100055 -0.0284899 -0.107154 -0.0782013 0.102894 0.0544799 -0.0747466 0.0587085 0.0456985 0.0844144 0.0307839 -0.0556139 0.0624285 -0.0675396 0.0237563 -0.0227486 0.0472479 -0.0374828 0.00759046 0.065901 0.0308227 0.0237148 -0.0370466 0.0543126 -0.00492947 -0.0151103 -0.0989694 -0.0836741 -0.0155476 -0.064877 0.177308 0.047738 -0.119751 -0.194493 0.0718369 0.233163 0.000367934 -0.152052 -0.0516855 -0.120253 -0.0053824 0.128044 -0.0975556 -0.252014 -0.312028 -0.270844 -0.121849 -0.140642 -0.156513 -0.199812 -0.338818 -0.270448 -0.0403351 0.0157491 0.089545 0.146172 0.22464 -0.166037 0.0278068 0.0616401 0.125886 0.301363 -0.0211741 -0.0288393 -0.158653 -0.00340968 0.193075 0.00647374 -0.0636304 -0.326673 -0.323858 -0.0507961 0.172844 0.115226 -0.201018 -0.30056 -0.0815015 0.00229892 0.0374901 0.0853841 0.0739049 -0.0355443 0.0618984 0.038243 0.000988759 0.0833945 0.0670018 -0.088634 -0.00286515 0.0790844 0.0726361 -0.0645815 0.0524034 0.0730643 -0.0151149 0.03491 -0.0782683 -0.0325165 -0.00529457 -0.0728253 -0.0879151 0.0282781 0.0810831 0.0726506 -0.21943 -0.123532 -0.088912 0.208705 0.0409701 -0.154581 -0.390706 -0.398144 0.194904 0.165618 0.162271 -0.243096 -0.703395 -0.403878 0.0261864 0.274868 0.189212 -0.351343 -0.364627 -0.00529499 0.16827 0.189392 -0.015128 -0.240024 -0.278097 -0.0205418 0.218483 0.00126196 0.104572 -0.0564467 0.324272 0.245959 0.107755 0.0292673 -0.070111 0.350419 0.247653 0.391019 -0.226991 -0.250419 -0.0243141 -0.0757463 0.129189 -0.25778 -0.00890219 -0.102647 -0.235436 0.181539 -0.263946 -0.0574776 0.242199 0.0447911 0.212173 0.127802 -0.24534 0.653151 0.3605 0.436867 0.137664 -0.400725 0.192185 0.337925 0.517542 0.140131 -0.209791 -0.0603081 0.137188 0.150604 0.0208301 -0.33139 -0.0882347 0.269776 0.00310056 -0.230947 -0.474631 0.176882 0.151401 0.0157989 -0.0322609 -0.172916 0.0840195 -0.0394998 0.0380873 -0.0503838 -0.140563 0.278692 0.175372 0.430711 -0.210988 -0.12048 0.273969 0.299514 0.352252 -0.118631 -0.141961 0.0759699 0.102837 0.183753 -0.114626 -0.0558791 0.106138 0.0577319 0.0679476 0.219192 -0.0183372 0.180096 0.115095 0.317523 -0.0441925 -0.251133 0.165073 0.265268 0.291259 -0.132305 -0.100828 0.0201148 -0.100931 0.255047 -0.110984 -0.176024 -0.210042 -0.0912585 -0.14263 -0.100506 -0.160315 -0.00443232 -0.157279 -0.0978289 -0.0211332 -0.0396699 -0.287865 -0.321359 -0.148045 -0.0195432 0.100372 -0.293983 -0.28352 -0.333071 -0.164707 0.223016 -0.0386907 -0.257141 -0.143645 0.0668543 0.149445 -0.13193 -0.027944 -0.0337905 0.16259 0.0474228 0.0732428 0.26237 -0.0618141 -0.128943 0.274565 0.237773 0.63462 0.0980053 0.156186 0.120964 0.0137789 0.480744 0.0277445 0.367289 0.119645 0.149463 0.310898 -0.142837 0.397373 0.275816 0.153932 0.110216 0.0781076 0.200112 0.0654042 0.195454 0.101594 -0.0459651 -0.0226205 -0.0197522 0.0714883 0.1018 -0.144636 -0.095096 0.0376061 -0.0534351 -0.00981427 0.0129826 -0.0182563 0.00533557 0.0418345 -1.39683 -1.42914 -1.15896 -0.727938 1.53224 0.949202 1.4111 -1.15442 1.1933 -0.869122 -0.726572 -0.724292 1.22735 -0.741324 0.392445 0.73736 0.69329 0.312926 -0.0356525 -0.304661 0.197073 0.850934 0.629363 -0.516714 -0.875842 -0.954805 0.0810785 -0.783971 -0.293616 -0.491116 0.228525 0.157935 1.00519 -0.548856 -0.234813 -0.692844 -0.234484 0.983868 0.636754 0.991042 0.317851 -0.86075 -0.232489 0.284559 0.41398 -0.509174 -0.210322 -0.929763 -0.797236 -0.407294 -0.108135 0.349814 -0.362769 -0.904908 -0.617899 0.147668 0.932826 0.0335068 0.415479 -0.473794 0.216506 -0.17875 0.5404 0.00563729 -0.12112 -0.117766 -0.0541127 0.0248785 -0.246356 0.00407605 0.103155 0.0898121 -0.129231 0.193337 0.101042 0.0138735 0.0405979 -0.00266629 -0.0947605 0.0405255 0.0212452 -0.0724621 -0.0902108 -0.127842 -0.22386 0.0014446 0.0408201 0.146889 0.0760049 -0.0151108 -0.0267082 -0.0285735 -0.0747503 -0.0596614 0.059434 0.244167 -0.0887559 0.00936736 -0.079139 -0.131743 0.0694777 0.061958 -0.205585 -0.198755 0.0327594 0.0376033 0.0532039 0.180648 0.108946 0.07391 0.138593 0.126549 -0.141908 -0.183455 -0.0136602 -0.0689547 0.0914471 0.117414 -0.0904443 -0.0959595 -0.000676513 0.0922322 0.188097 -0.126154 -0.0336897 -0.0792348 0.0325461 -0.0281469 0.108042 -0.115433 -0.0522212 0.0442905 -0.0063426 0.0309181 0.0157459 0.147125 0.291933 0.0460442 0.183436 0.171976 -0.05144 0.118631 0.076138 -0.0167993 0.157057 0.102449 -0.0304971 0.0965579 0.00177266 -0.020703 0.00612041 0.187313 0.0481454 0.0183198 0.0142315 -0.0383271 -0.0816335 0.116766 -0.0187822 0.0891337 0.00098171 -0.0562379 0.0256443 -0.0432617 0.145174 0.0965622 -0.0775207 0.132123 0.117189 0.00193821 0.0888159 -0.0120582 0.0884928 0.216605 -0.0493593 -0.0510258 -0.0499687 0.0192172 0.134387 0.0717998 0.100539 -0.0438806 -0.0430754 -0.0378 0.0125602 0.0130495 -0.187798 0.0329059 -0.0325209 -0.081062 -0.200095 -0.00875659 0.23174 -0.147069 -0.0140804 0.0539262 0.0292727 0.00587093 0.181761 0.0034312 -0.091265 -0.0220743 -0.091838 0.0306896 -0.171909 0.0239522 0.000120598 0.0195837 -0.0610049 0.0949634 0.106653 0.129145 -0.00224222 0.0305236 0.0026246 0.0102735 -0.10813 0.173823 -0.0714188 0.150518 0.0741799 -0.0568974 -0.0776742 -0.195406 -0.048321 0.112371 0.311042 0.0141868 0.166448 -0.0335343 -0.0987894 -0.00441531 -0.104185 -0.139801 -0.11696 0.0139432 -0.0759743 0.0186207 0.14114 -0.0787564 0.145005 -0.107747 -0.00667636 0.143887 -0.0895789 -0.0183728 0.138431 -0.0317825 0.124412 0.0559234 0.164189 0.147906 0.185095 0.12368 0.0316457 0.0882857 0.0964948 0.151759 0.033092 0.129623 0.0285766 -0.075581 -0.0579795 0.0936863 0.0930735 0.0729231 0.0420288 0.1354 0.121656 0.104434 0.0834023 -0.0470899 -0.04223 0.123168 0.0879589 0.0799766 0.147641 -0.00368323 0.112786 0.0856703 -0.0659106 0.0289838 0.00830316 0.0441123 -0.0998101 0.0175645 0.0651389 -0.0656646 0.117122 -0.0997994 -0.00869423 0.0962559 0.028779 0.105665 -0.124501 0.105027 0.147233 -0.165957 0.0723866 0.0143738 -0.015454 0.107852 -0.177641 0.0205194 -0.0303569 0.0542552 0.113599 0.0263378 0.0121455 -0.156215 0.0687826 -0.238544 -0.0292829 0.0246712 -0.00420247 -0.335682 -0.0901743 0.0962227 0.0889475 -0.245639 -0.102932 -0.081116 0.127785 0.0541652 0.113936 -0.0737563 -0.337884 -0.129542 0.133241 0.043141 0.0693927 0.0701541 0.104218 0.0512342 0.162134 -0.138162 -0.191276 -0.10035 -0.182706 0.0783029 -0.00897556 -0.0370544 0.128727 0.00127982 0.0268915 0.00196569 -0.106473 -0.0547823 0.234053 0.148009 -0.128575 -0.096079 0.0404462 0.126239 -0.0274039 0.120657 -0.148972 0.00286103 0.00410927 0.104767 -0.155567 -0.0706576 0.0279588 -0.0510976 -0.0880134 -0.107082 0.230834 0.0393497 -0.168062 0.0656102 -0.0608886 0.0311125 -0.0160822 0.0463737 0.0182288 -0.119057 -0.0474026 0.137523 0.155919 -0.114541 -0.0100484 -0.0131398 0.0582525 0.0874567 0.0631653 0.0897679 0.0940903 0.0464707 -0.0163225 0.00351782 0.066205 -0.00284328 -0.135839 -0.105986 -0.0119522 -0.0584755 0.197579 0.0180968 0.0238589 -0.130078 0.118102 -0.0568892 -0.223695 -0.110618 -0.00780254 -0.210611 -0.137283 0.00875679 -0.0184608 -0.154383 0.0477306 0.160487 -0.0305266 0.0858692 -0.199265 -0.175654 0.145082 -0.10308 0.0449599 -0.0318758 0.0963875 -0.113554 -0.116265 -0.170922 -0.224914 0.0299027 0.291012 -0.304255 0.114624 -0.330338 -0.16202 -0.0744113 -0.0398335 -0.0347011 -0.0995194 -0.0742579 0.0187481 -0.126636 -0.0685221 0.146465 0.0227963 -0.143384 -0.0627107 -0.139109 -0.185833 -0.193746 0.0705146 0.0579591 0.102642 -0.0414351 -0.168563 -0.0115081 -0.233896 0.0691539 -0.0760653 0.0254521 0.0340759 -0.162523 0.0100995 0.169788 0.13769 0.0798588 0.15178 0.208108 0.174346 0.0330636 0.0984236 0.128161 -0.215844 0.0822576 0.0729756 -0.028887 0.244852 -0.0474407 0.156948 0.032698 0.0561028 0.100579 -0.126161 0.091513 0.148622 0.136042 -0.0433242 0.0769687 0.0706648 -0.117854 -0.00683919 0.0132114 0.0388048 -0.054233 -0.181813 -0.11087 0.0970762 -0.0419638 -0.17185 -0.207106 0.0410941 -0.177288 -0.218848 -0.119792 -0.0203522 -0.0175796 -0.124234 0.0943427 0.0557402 0.0173481 -0.0566284 0.0269637 0.0710866 0.0183015 -0.00184908 -0.122717 -0.101041 -0.0881686 -0.0211053 0.0487818 -0.163409 -0.107787 0.0788089 0.0294207 0.120071 0.0548237 0.159231 0.0703053 0.136176 -0.0766759 0.185084 0.11828 -0.0769453 -0.158746 -0.00868076 0.14089 0.0503701 0.0380897 0.00411546 0.0705316 -0.0248869 0.0368755 -0.0965808 0.0353747 -0.103888 -0.124509 0.0876245 0.0857519 0.0381182 -0.0330011 0.0105894 -0.168447 0.0567071 0.0960966 0.292324 0.354085 0.13405 0.189533 0.123957 0.0638448 0.0357616 -0.0837628 0.110577 -0.0470687 0.107851 0.0166136 -0.0424328 0.0433768 0.0850499 -0.0931845 0.126033 -0.0133723 -0.099891 0.127568 0.0764925 -0.0940976 0.0559562 -0.0857216 0.112388 -0.210711 -0.0659637 -0.0734532 -0.0470505 0.0306233 -0.108385 -0.26512 -0.236747 -0.287284 -0.00167339 -0.00492225 -0.132459 -0.09788 0.000156908 -0.135529 0.044515 -0.158113 -0.139248 -0.0568574 -0.0297689 0.0862256 0.0413733 0.187688 0.119895 0.118726 -0.300507 -0.218114 -0.0469724 -0.126416 -0.314139 -0.0421771 -0.00299671 -0.0655424 0.0274129 0.0126511 0.0116573 -0.0477882 -0.0927993 -0.0941877 0.0954442 -0.0160231 0.180172 0.0873699 0.0567835 -0.0518861 0.287525 0.0152029 -0.156491 0.181819 0.0451118 0.266241 0.0108387 -0.141156 0.116346 0.135554 0.145431 -0.0194629 -0.0775574 -0.0554686 0.0161758 0.0716641 0.0287489 -0.036538 0.00909867 -0.0567183 -0.0876475 -0.0335999 -0.0619425 -0.0864301 0.0758571 -0.200371 -0.17413 0.0311885 -0.0344858 0.0713369 0.112047 0.186147 0.126209 0.0782591 -0.097164 0.0157323 0.0630902 0.0644643 -0.050816 0.0217407 0.0273493 0.0321069 0.0265508 0.0465421 -0.0240238 0.0363862 0.178852 0.0285721 0.0222192 -0.00406523 -0.0655134 -0.166575 -0.0748412 -0.189511 -0.0497401 -0.057922 -0.107638 -0.0650937 -0.0356849 -0.00902242 -0.0288188 -0.0523739 0.0216917 -0.0608009 0.00936926 -0.0635689 0.0222264 0.0305358 -0.00572664 0.103233 -0.128282 -0.0454758 0.052664 0.028773 0.0631565 0.18564 -0.0700794 0.176632 -0.00306058 0.0807944 -0.209542 -0.152471 -0.0429264 0.0643058 0.0372461 0.186961 0.125983 0.0828412 0.0504626 -0.00361362 0.0648694 0.194009 0.0898502 -0.0422278 0.0136865 0.278861 -0.14214 -0.0864648 -0.093205 0.0966688 0.094163 -0.161714 -0.0229517 -0.0203704 -0.0319518 -0.109638 -0.139809 0.0886442 0.214089 0.0150239 -0.0244032 0.05901 0.0248135 -0.0507884 -0.0440485 0.0183386 0.083421 0.0263448 0.0995182 -0.101379 0.168546 0.110503 0.208237 0.101766 0.0841079 0.136066 -0.00105998 0.33824 -0.0346223 -0.0140757 -0.172709 -0.153386 -0.0215727 -0.121007 -0.151761 -0.245808 -0.209453 0.0413213 -0.0463559 0.0522811 -0.0505851 -0.147237 0.0269712 -0.0689527 -0.0559049 0.0831054 -0.135705 -0.211198 0.0642003 0.0980508 0.202861 0.200128 0.0367418 0.1702 -0.108847 -0.170527 0.157553 0.160918 0.0663672 -0.0361063 -0.00929385 -0.0840281 -0.182696 -0.0634839 0.189042 0.110224 0.0116867 -0.151973 -0.133099 0.0788728 0.131484 -0.108779 -0.0482845 -0.0161396 -0.048488 0.0874703 0.134087 0.0981319 0.0921791 0.0412653 -0.0848411 -0.270833 -0.155588 -0.13524 -0.319655 -0.114205 -0.0113766 -0.0356512 0.113553 -0.012378 0.11562 -0.0318212 0.247344 -0.113206 -0.118374 -0.0512106 -0.0683574 0.0270237 -0.054759 -0.190305 -0.0480195 0.0357118 -0.309934 -0.176542 -0.092517 -0.0824654 -0.10179 -0.0986046 -0.0324518 0.151186 0.109996 0.0489982 -0.0436648 0.0338966 -0.0566266 0.18151 0.109095 -0.110741 -0.178751 -0.127028 -0.072795 0.0854886 -0.149004 -0.192561 0.0109895 -0.139948 -0.17001 0.0269431 -0.0355013 0.0479971 -0.066691 -0.0890467 -0.0504422 -0.0864763 -0.0326536 -0.015781 -0.0559632 -0.00788598 -0.207311 -0.0844221 -0.063287 -0.0778572 -0.0684579 0.102536 -0.0437819 0.0970976 -0.097237 0.022566 -0.010714 -0.0186461 0.112961 0.0254839 -0.0843075 0.0925216 0.12709 0.197756 -0.012516 0.017688 0.179338 0.19235 0.111516 -0.000661866 0.151987 0.00789715 0.00305014 0.0302444 0.0987195 0.063587 0.0317919 0.0764934 -0.0279187 -0.116338 0.101568 -0.0735616 0.0181377 0.0675817 -0.0800558 -0.17979 -0.0110194 -0.0233615 -0.0672946 -0.0383864 0.0609881 0.0680701 0.0310882 -0.0527607 -0.0315907 0.0583269 0.0232302 -0.0154513 -0.0245046 -0.0783547 -0.236022 0.158699 -0.00897211 0.077476 0.12986 -0.0913116 -0.0436275 -0.114344 0.101143 0.246615 0.190187 0.0383168 0.00208994 0.0860534 0.0672653 -0.0301401 -0.0630556 -0.0377687 0.0133866 -0.103614 -0.170185 -0.127649 0.044624 0.0556468 0.00316137 -0.0200483 0.146561 0.0103156 0.00686407 -0.126207 -0.124393 -0.173227 0.000907359 -0.0555173 -0.0140588 0.0870673 0.0770614 -0.185938 -0.0286386 0.0777195 0.0881449 0.00630882 -0.0601199 0.149698 0.0609839 -0.106876 -0.00970666 0.0295103 0.0734414 -0.0378109 0.0376454 -0.104544 0.0928693 -0.0208241 -0.00820053 0.089494 0.102272 0.0259016 0.117729 -0.0130427 0.208666 -0.020377 -0.0797772 -0.039621 0.141486 0.131796 -0.094997 -0.0914965 0.0977131 0.0422779 0.082057 0.0513806 0.0339308 -0.0463066 -0.0652132 0.0411468 -0.149822 -0.114596 0.0984493 0.063634 0.144067 0.0376577 -0.133539 0.230831 0.148314 0.150479 -0.0684032 -0.00877542 0.0127652 -0.00530711 -0.00233986 0.0376346 0.0820384 -0.0893502 -0.154824 -0.0361621 -0.0120544 -0.145904 -0.0859158 -0.0626482 0.0470326 0.0177918 -0.0585944 -0.108063 -0.0308365 -0.269718 -0.222304 -0.0515112 -0.0100591 -0.285179 -0.0520989 -0.0525286 -0.158531 -0.0390266 0.085517 -0.101099 -0.0818372 -0.0928822 -0.110036 0.115578 -0.0277282 0.0442864 0.0252615 0.0117296 -0.0143049 -0.160153 -0.100903 0.0289677 0.0985293 0.0971619 0.0533409 0.0723393 -0.0211385 0.0325108 0.0337548 0.0391764 0.0522527 -0.0240067 0.0284305 -0.0123439 -0.0647245 0.0215517 -0.0288857 -0.0225469 0.00868136 0.00307932 0.0336948 -0.035881 -0.000110788 -0.0247948 0.0489942 -0.0389809 0.0393122 -0.0417189 0.0607854 0.0540038 -0.0140492 -0.0888067 -0.0213222 0.0512263 0.0939937 0.00105512 0.0553288 -0.0323729 0.0497847 0.0717244 0.022447 -0.0695995 0.0513342 -0.0493001 -0.0197456 -0.0263429 0.0686966 -0.034716 0.0316618 -0.0915326 -0.0451236 -0.0791854 -0.0514322 -0.163867 0.110816 0.0975161 -0.114167 0.0710474 -0.0252838 -0.0533636 -0.135708 -0.128926 0.0553269 -0.0593212 -0.0147338 -0.0532886 -0.0645257 0.098007 0.173558 0.0665857 0.0127537 0.0862067 0.0607649 0.0192868 -0.272209 -0.155174 0.0173259 0.117434 0.108356 0.348795 0.0453195 -0.0469295 -0.0436264 0.0078879 -0.149902 -0.135086 -0.0423725 -0.0415069 -0.0634712 -0.105151 -0.0947996 -0.0274015 0.0110227 0.0435107 -0.0796841 -0.0363813 0.0656535 0.0992187 -0.0504156 0.0381981 0.0527874 -0.000361527 0.110145 -0.0394667 -0.071875 0.110749 0.0731822 0.00830504 0.10275 0.0398707 0.134862 0.0714775 -0.0584789 0.0132461 0.128588 -0.0548199 0.0497437 -0.0123496 0.0336547 0.170577 0.0527905 0.0679388 0.0906468 0.120216 0.15146 0.0869021 -0.000723998 0.121622 0.177077 -0.0865773 -0.129664 0.0266781 0.124424 0.278675 0.00733409 -0.0159077 0.0872999 0.0184632 -0.016264 0.0632755 -0.0406385 -0.0853722 -0.00437451 -0.0679623 0.0579357 0.0365887 0.215524 -0.0608796 -0.160813 -0.195307 -0.138696 -0.0118281 -0.119768 -0.06653 0.0248097 0.122666 -0.0274262 -0.0722512 0.0984294 -0.0159717 -0.0742047 0.158781 -0.00928314 0.119687 0.174004 0.169705 0.0254229 -0.127513 -0.16558 -0.0571912 0.00948973 0.18009 0.228758 0.163187 -0.0475814 0.103045 0.186836 0.0258374 -0.122029 0.126063 -0.0697364 -0.00522688 -0.120242 -0.158854 -0.132629 0.0333243 0.123452 -0.0795288 -0.116317 0.0136951 0.152328 0.0808477 0.0556494 0.0911149 0.0941583 0.0825921 -0.0971552 -0.135515 -0.0491923 -0.021521 -0.0734748 -0.0138612 0.129586 0.223921 0.196591 0.0325921 -0.0631344 0.0469074 0.108578 0.148278 -0.012237 0.0384227 -0.0408722 0.245208 0.0225735 0.153091 -0.0215879 0.0331887 0.0756708 0.0788695 -0.150225 -0.141161 0.032546 0.070585 -0.0200607 0.0583348 -0.0115397 0.10814 0.103134 0.0040949 -0.12652 0.0269476 -0.0368262 0.0632332 -0.20909 0.0617476 -0.152358 -0.12847 -0.0271591 -0.0443073 -0.0215316 0.0879374 0.0419988 -0.00863085 0.0571061 -0.000634047 -0.118816 0.180055 0.138932 0.2335 -0.00772414 -0.0251177 0.0687569 0.125953 -0.0255212 -0.0820782 0.176005 0.110415 0.10375 0.165062 0.168467 0.0754253 0.0921385 0.0388637 0.0220283 -0.0987429 -0.125317 0.0245078 0.0848053 0.0174087 -0.0453416 0.0460956 0.0975635 0.179062 0.383086 0.0962918 0.0454557 -0.137107 -0.215021 -0.157726 0.217716 -0.0332958 -0.0752757 -0.0463925 0.0226977 0.184069 -0.126816 -0.0582165 -0.184057 -0.097294 0.0873615 0.0686879 -9.29721e-05 -0.00134034 0.0216946 0.145471 0.0591559 -0.0447349 0.0555538 0.148475 -0.0269559 -0.000705407 0.0514776 0.134947 0.122366 0.105935 0.169146 0.0566966 0.0924935 0.085873 0.0392896 0.104978 -0.252116 -0.227717 -0.156305 -0.143523 -0.00215888 -0.107652 0.00202639 -0.0180303 -0.0500915 0.042501 0.0568571 -0.0604475 0.0097201 -0.0836153 -0.177503 0.0224595 -0.0325575 0.0573387 0.139427 -0.0985961 0.109692 -0.0959825 0.00713361 -0.00820927 0.0418277 0.0939342 0.0762176 0.0245329 0.025925 0.0297438 0.10063 0.273925 0.0718005 0.156399 0.0599276 0.0215818 -0.0215896 -0.0251765 0.119626 -0.0377711 -0.145213 0.0659978 0.118766 -0.0127284 -0.100154 0.0317232 -0.197615 -0.1315 -0.0862556 -0.08489 0.167646 0.225887 0.0994996 0.112356 0.162501 -0.0360987 0.0247112 0.123662 0.173763 0.165195 -0.0582591 0.0877266 0.0377546 -0.130581 -0.0442001 -0.103554 -0.328223 -0.164529 -0.0347398 -0.27438 -0.324163 0.14298 0.105077 -0.411893 -0.0545672 -0.138854 -0.230526 -0.0683655 -0.0269645 -0.00897008 0.0164865 0.0094125 0.065744 0.0586683 0.0327268 -0.00474414 0.00341163 -0.202908 0.00213064 0.0309499 0.0984859 -0.0485847 0.00746335 0.103683 -0.0610243 0.154388 0.0351943 -0.149023 0.0702514 -0.0566958 -0.0826066 -0.0712426 -0.120914 -0.0847799 0.0384284 0.0130683 -0.0690105 0.0233877 -0.0142801 0.0142554 -0.0628237 -0.0965392 -0.0803324 0.011572 0.0596784 -0.0180425 -0.102023 -0.207246 -0.0460038 -0.0414586 -0.0337265 0.0515405 -0.0993766 0.082561 -0.0219922 -0.0120866 0.0265801 0.0490783 0.015099 -0.00534802 -0.0519694 0.00460718 0.0634518 0.099193 -0.0471882 0.0700677 0.0525308 0.127901 0.0623764 -0.0980634 0.151876 0.12986 0.205007 0.0152175 -0.000354401 -0.273739 -0.141389 -0.179621 -0.120303 -0.0692815 0.0560157 -0.027819 0.021722 -0.0146071 -0.00952643 -0.0238568 0.053307 0.0575563 0.0262128 -0.0882211 -2.64456e-05 -0.0328154 -0.0754189 0.0177523 0.0263767 0.0374701 0.304356 0.0510649 0.193908 0.194657 0.285892 0.17 0.00968723 -0.00109919 -0.0425467 -0.0789266 0.0517259 -0.0791016 -0.0230987 -0.205619 -0.0144019 -0.0986223 -0.112781 -0.143485 -0.141448 0.0311824 -0.164046 -0.195966 -0.168277 -0.237245 -0.0616369 0.0664859 0.000808426 -0.239502 -0.124899 -0.178886 -0.293742 -0.197024 0.062464 0.0887649 0.0999732 0.18424 0.0928688 0.102891 0.115228 0.212059 0.108528 -0.0427321 -0.0797032 -0.0339516 0.00856474 0.018594 -0.0173025 -0.0283728 0.00831498 -0.25086 -0.048121 -0.0175965 -0.203099 -0.0988013 -0.0801138 -0.0232844 0.00506743 -0.164057 0.0312235 0.0839757 0.00241432 0.0362057 0.0357563 0.0991847 0.0338987 0.106564 0.0798547 -0.0812048 -0.226722 -0.0962419 -0.0340733 0.105509 0.0309198 -0.034771 -0.156615 0.169824 -0.0280221 -0.0641879 0.14897 -0.213483 -0.325844 -0.337123 -0.131387 -0.205936 -0.0370321 0.0540891 0.0102634 0.0888479 -0.0559529 0.0754763 0.0417377 0.0404918 -0.02511 0.057838 -0.131589 0.145663 -0.0320008 -0.0696067 0.0253121 -0.120504 0.0877614 -0.017834 -0.108991 0.0122196 0.021366 0.00181325 0.166729 0.113882 0.0708274 0.100806 -0.0525898 -0.0323886 0.032009 -0.037471 -0.0356059 -0.0584429 0.0834224 -0.0763706 0.0103024 0.0557686 -0.0222005 0.170289 -0.0537421 0.19688 0.0176626 -0.0450139 0.148954 0.016194 0.0210691 0.288321 -0.00319294 0.0857427 0.0920935 0.0555125 0.311605 -0.0948867 0.0836728 -0.00730289 0.175027 -0.0934189 -0.0114682 0.0154482 0.0680402 0.312994 -0.0539473 0.0352634 0.12998 0.211246 0.0939834 -0.0445304 0.00665437 -0.0561404 0.276366 0.152212 0.0381053 0.18133 0.264984 0.199926 -0.152352 -0.014695 -0.108799 0.0735369 0.0590149 -0.186684 -0.142828 -0.0129974 -0.0812544 -0.0971719 -0.0856229 -0.3225 -0.180463 -0.452682 -0.126571 -0.211968 -0.0101672 0.112365 -0.0194316 -0.0652106 -0.111552 -0.0318549 -0.126397 -0.0713689 -0.169708 -0.19784 0.106709 0.0700412 -0.165304 -0.140494 -0.208837 0.16313 0.101778 0.211399 0.162486 0.0940961 0.282346 0.328635 0.280613 0.107245 0.0686246 -0.0815914 0.0206589 0.052418 -0.0314835 0.0451265 0.215195 0.00126141 -0.0392082 0.064829 0.185851 -0.104129 0.0722311 -0.0734207 -0.0358758 -0.0437731 -0.216569 -0.106405 0.0106147 0.0566017 -0.0325926 0.00143137 -0.188158 -0.0902393 0.0705304 -0.0301104 -0.1428 0.115847 0.162221 0.0832432 -0.0613612 -0.0553331 0.00868194 0.0849066 -0.0407715 0.150656 0.123098 0.115727 0.22852 0.202207 -0.00637949 0.0442391 0.0513766 -0.156374 -0.0552235 -0.00739227 -0.133577 0.165146 0.145815 0.13691 -0.0316993 0.0188781 -0.129274 -0.0940515 0.0292059 -0.0508802 -0.0441293 -0.221942 -0.0819781 -0.230668 -0.0553533 -0.0466082 -0.24898 -0.101594 -0.0150196 -0.0436658 0.0441031 -0.0326313 -0.0111299 -0.11688 -0.00356399 -0.0517328 0.224208 0.13527 0.069525 -0.0463144 -0.0471991 -0.0235518 0.00862112 -0.0381514 -0.00952132 -0.0342889 0.0570629 0.104185 0.0938669 0.0183097 -0.341197 0.0125353 0.152507 -0.230411 -0.270603 -0.290148 -0.0762824 -0.175115 0.0914252 0.161416 -0.00968613 0.111266 0.188783 0.0294646 0.0113808 0.0810129 0.0658341 -0.0431835 0.0238547 -0.0968837 -0.0513529 0.204148 -0.00823898 0.0481621 0.164259 0.131981 -0.136971 0.124405 0.155874 0.139803 -0.0247517 0.0659844 0.137785 -0.0100763 -0.105061 0.0402431 -0.0571152 -0.0819188 0.0457718 0.0909976 -0.0174339 0.03292 0.109347 0.0662205 0.0439671 0.0397256 0.00148805 0.221546 -0.0442364 0.0174025 0.257179 0.284183 -0.155086 -0.0715864 -0.150888 0.0668931 0.073161 0.148952 0.120958 0.0434953 0.143436 0.15575 -0.01674 0.0598777 0.165481 0.123958 0.0401871 -0.000955147 0.0815618 0.123284 0.0635888 -0.0523879 -0.0739009 -0.0173094 0.0667744 0.116452 -0.110686 0.0114363 0.0429522 0.047863 0.0252462 -0.11541 -0.0106371 0.0189799 -0.0938511 -0.0442799 0.0535842 0.0522989 -0.188256 -0.148975 0.0660913 -0.01828 0.103689 -0.0136701 -0.215445 0.126626 -0.0317932 0.0510682 -0.0438126 -0.178145 0.0681427 -0.183832 0.0529375 0.0174209 -0.0269934 0.189858 0.133563 0.270091 0.11327 -0.095575 0.110706 -0.011753 -0.0181103 0.0385908 0.0702478 0.162033 0.130815 0.203592 -0.0659389 0.00896484 -0.0496262 0.0319496 0.134469 0.0280478 -0.121689 -0.121544 -0.0502984 -0.0135348 0.133049 0.026623 0.209216 0.150818 0.352878 0.176408 0.112233 0.0276005 0.116134 0.085415 0.146336 -0.0375739 0.000297324 0.0296602 0.207152 0.121457 0.204475 0.0250467 -0.0100296 0.0619518 0.086049 0.0676484 -0.161407 0.0888433 -0.106485 -1.41309e-05 0.13736 0.0923741 0.0786444 -0.321849 -0.153744 -0.0793175 -0.0906305 0.0848341 0.0315696 -0.0324608 -0.141069 0.102366 -0.227126 -0.0187129 0.252492 -0.0381759 -0.0287304 -0.0318827 0.0639336 -0.0424394 -0.0632454 -0.146441 0.133097 0.136081 -0.0319293 0.206732 -0.0831207 -0.141481 -0.256989 -0.0755581 0.0373247 0.0955903 -0.132213 -0.124603 0.0287563 -0.0189485 -0.105728 0.0467802 0.243257 -0.0518862 -0.0451951 -0.0221897 -0.0759783 0.0183282 0.0148391 -0.0802412 0.00787076 -0.303594 -0.15268 -0.127264 -0.158014 -0.224816 -0.010697 0.169806 0.0617563 -0.00954135 0.114946 0.0608493 -0.214388 -0.145658 -0.161903 0.164569 -0.0694502 0.0679496 -0.150785 -0.0209421 0.290563 -0.00166896 -0.155704 -0.35391 0.00906636 0.187703 -0.195303 0.188644 -0.304769 0.342546 -0.0711332 -0.0451445 0.0799861 0.0119787 -0.184675 0.0451033 -0.131306 -0.207668 -0.0527169 0.127743 -0.00813938 -0.0506188 -0.0582959 -0.319662 -0.0963896 -0.0552799 -0.252504 -0.0474251 -0.119091 -0.115969 0.221407 -0.291008 -0.0384425 -0.0413315 -0.186418 -0.0637906 0.056914 0.138803 0.166033 0.0500414 0.0635013 0.114275 0.264705 0.103493 0.102118 -0.0804057 0.0920965 0.0111197 -0.0119953 0.119091 -0.0185499 0.0976232 0.06247 0.212204 0.0961371 -0.130707 -0.113261 -0.0565991 0.426157 0.316501 -0.127547 -0.0169579 -0.0695024 -0.116515 -0.130418 -0.221693 -0.0511016 0.0296632 -0.419039 -0.299906 -0.0857376 -0.113697 -0.229824 -0.164795 0.114157 0.149579 0.0825447 0.00620223 0.00249405 -0.0380867 -1.22393e-05 0.173392 0.178508 -0.0156348 0.103159 -0.042938 -0.0876824 0.121994 0.0640295 0.105911 0.119816 -0.0302731 -0.25117 0.158741 0.242048 0.0699588 0.23935 -0.0159437 0.0444715 -0.0779802 -0.0489901 0.252982 0.290619 -0.0468906 0.076177 0.0830876 0.0749609 0.054884 0.0741269 -0.031265 -0.0847357 -0.0477592 0.0730492 -0.210768 -0.223775 -0.0146948 -0.0478684 0.0508118 0.116293 -0.0332296 -0.0918716 -0.169807 -0.229471 0.132815 -0.0599994 0.0573277 0.133869 0.215853 0.165875 -0.0718361 -0.171037 -0.0256387 0.0822857 0.0698379 -0.0854492 -0.0542148 -0.0235897 -0.212253 0.0243482 0.208415 -0.148653 -0.180655 -0.0720725 -0.151396 -0.308294 0.0672539 0.0759236 -0.146009 -0.24797 -0.00337308 0.276854 0.0978364 -0.313571 -0.254527 0.00494868 0.0896745 0.0793732 -0.00321417 -0.0413073 0.115128 -0.119593 -0.0291451 0.266357 0.454032 0.373683 -0.158393 -0.0257049 0.00806754 -0.179506 -0.000200878 0.25396 0.0627805 0.0346735 -0.290976 -0.194282 -0.135249 -0.336141 -0.129142 -0.15182 -0.000991572 0.0102297 0.0143423 -0.121273 -0.0152973 -0.0112593 -0.140482 0.0714377 -0.0531083 -0.0456851 -0.0694923 -0.149796 -0.119722 -0.020172 0.0577629 0.189886 -0.0476514 0.0357092 -0.174012 0.032806 -0.218593 0.157781 0.12756 0.145307 -0.127617 0.146177 0.0666277 -0.0560003 -0.0938948 0.0450374 -0.0535012 0.0126699 0.0395079 -0.0435551 -0.0700684 -0.074362 0.231751 0.112592 0.228731 0.144351 -0.0175237 0.0176811 0.0815089 0.278235 0.0441566 0.0273189 -0.0165251 0.140359 0.00300756 0.0847487 -0.0969406 -0.0620266 0.0442323 0.0571122 0.00231687 0.103685 0.0620654 0.108099 0.0340038 0.0935066 0.0249583 0.0877607 0.136554 0.0390964 0.00840843 0.15177 0.1415 0.0595929 0.193521 0.110994 0.0562226 -0.0389306 -0.0752313 -0.00243836 0.0269514 0.158865 0.0833811 -0.0828315 0.0300732 0.0940056 0.11899 0.0571292 0.110088 0.0530863 0.195291 0.168112 0.0147525 0.0282969 0.0681503 -0.1969 -0.167879 -0.0253702 -0.0132961 0.169242 -0.112182 -0.147439 -0.0106629 -0.0295843 -0.0524362 -0.131352 -0.0490265 0.105021 0.0739553 -0.0681491 -0.0933465 -0.0324903 0.0778682 -0.0580431 -0.00242983 -0.0919604 -0.0340936 0.250998 0.188167 0.017152 -0.0589323 -0.245206 -0.00148416 0.187703 0.218684 -0.0577919 0.188841 -0.190563 -0.0706739 -0.176089 -0.0574388 -0.197193 -0.0941072 -0.0487528 -0.0727832 -0.0162181 -0.00571127 0.160295 0.0960099 0.12399 0.0456535 0.299918 -0.0112473 -0.0917361 -0.173669 0.0323839 -0.0925743 0.0221977 0.00150567 0.0808742 -0.236841 -0.0411094 -0.262788 -0.328054 -0.0957464 0.0550441 -0.177341 -0.0217199 0.000947528 0.0324794 -0.0319452 0.119407 0.0482669 0.0946631 0.0385703 0.134454 0.271074 0.127353 -0.0328925 0.0627046 -0.108363 -0.115567 0.155057 0.0405303 -0.0284128 -0.118459 -0.0876397 -0.352756 -0.277437 -0.0640999 -0.0969511 0.028329 -0.165182 -0.141611 -0.176668 -0.0242488 -0.0421483 0.124784 0.135692 0.0843931 -0.0943886 0.05648 0.00720302 0.297463 0.140824 -0.0722354 -0.189876 0.115665 -0.0226556 -0.0231071 -0.244906 -0.120076 -0.0399518 -0.255724 -0.213165 -0.150257 -0.113841 -0.209876 0.0289632 -0.0746934 -0.16631 -0.0733996 -0.037343 0.110844 -0.281655 -0.2067 -0.292796 -0.0873459 -0.0511006 0.00517707 -0.0775983 0.000529398 -0.345164 -0.268955 0.145544 0.106219 0.108876 0.0328708 0.281507 0.226578 -0.0980542 -0.015619 0.0329418 0.0565916 0.0657408 0.000256763 0.126253 0.0222956 -0.0877057 -0.188812 -0.0940932 -0.316904 -0.00665233 0.0161546 -0.0875753 -0.135921 0.112614 -0.076494 0.0187163 -0.00784912 -0.118693 0.0418316 -0.0298918 -0.0829622 0.0645765 -0.167071 0.127775 0.199394 -0.122056 -0.076758 -0.156872 0.0744475 -0.0850571 -0.180902 0.100222 -0.00142508 -0.121548 -0.14595 -0.422997 -0.0168435 0.225 0.160985 0.0536932 -0.161793 -0.169967 0.0578976 -0.0375167 0.14941 0.0316878 0.258673 0.11591 0.0422994 0.100573 0.0744242 0.0222825 0.0894797 0.0556056 0.132336 -0.0186787 -0.00681877 -0.0391253 0.0484709 -0.0787056 0.118919 -0.221875 -0.0120918 0.140504 -0.0630334 -0.245755 0.115047 0.02454 -0.0437522 0.0585076 0.0103573 -0.180964 -0.0864214 -0.206973 0.0664219 0.197888 -0.0797685 -0.0698872 -0.0635619 0.0940344 0.0606097 0.161329 0.143362 0.0221332 0.0449172 0.00866957 -0.0272728 0.0158304 0.0478234 0.0760389 0.0324669 0.108792 0.0122936 -0.0965202 0.0289322 0.0804709 0.211976 -0.109761 -0.0980714 -0.0170557 0.307268 0.148237 -0.246223 -0.044745 -0.0774567 0.0306133 0.120372 0.00329326 0.0104192 -0.00458489 -0.0949447 -0.147608 -0.0605521 0.0299262 0.0514535 0.0764073 0.056301 0.00320347 -0.0226238 0.0838731 -0.0207714 0.125063 0.00967157 0.110264 0.0478103 0.283942 0.197391 0.174937 -0.112434 0.137765 0.0295009 -0.109004 -0.124121 0.0566184 0.124494 0.107678 0.122575 0.167591 0.377655 0.253471 0.134039 -0.129872 0.339891 0.351714 0.157769 0.0856309 0.0340044 0.0554845 -0.110826 -0.00378547 -0.120617 0.0397711 0.0804335 0.140442 -0.00773746 -0.0366081 -0.024132 -0.21819 -0.231714 0.0202785 0.0981992 0.0461866 -0.280838 -0.0362962 0.265161 0.0657236 -0.103494 0.0981182 0.0721297 0.198406 0.00101423 0.0521683 0.171828 0.190711 -0.0881849 -0.140083 -0.0410568 0.0344799 0.0821448 -0.0106889 0.0925287 0.077926 -0.0185349 -0.254661 0.113707 -0.0530949 -0.0224022 -0.00863311 -0.0752566 0.000299754 0.120604 -0.0279829 -0.107743 -0.0392615 0.116087 -0.0410991 -0.147313 0.0640834 0.15215 0.109359 -0.0791747 0.0574285 0.0969386 -0.0326734 -0.0436866 0.0492985 0.00420337 -0.00429959 -0.110441 0.00567062 -0.0266014 -0.0362376 0.0118167 -0.108606 -0.0207748 -0.0778849 -0.03676 -0.0797003 -0.0535289 -0.119716 0.0638096 0.147336 -0.0505428 0.0882933 -0.0523702 0.00449483 -0.00198821 0.11766 0.0264304 0.0326815 0.0180597 -0.028513 0.113701 0.00931594 0.0309121 0.0410326 -0.00959728 -0.0381154 -0.00963867 0.0934624 0.0227788 0.0739618 0.017064 0.0202578 -0.016387 -0.0216383 -0.131382 -0.0540427 0.0955051 0.0119395 -0.159649 0.0434955 0.05409 -0.00517698 0.0337944 0.0722253 -0.198081 -0.12356 0.0323905 -0.0477826 0.217141 -0.170219 0.0109278 0.19354 0.000777672 -0.059829 -0.13275 0.0931602 0.12963 0.178128 0.0276573 -0.277732 0.0705909 -0.0462518 0.12096 0.107564 -0.0742433 -0.0798326 -0.0560233 0.0696996 -0.279485 -0.117689 0.0931085 0.00699215 -0.0213634 0.187821 0.0445875 0.0896397 0.238855 -0.118854 0.125865 0.168007 0.0336065 -0.0544681 -0.00930956 0.126614 0.149199 0.134132 -0.292452 -0.0688605 -0.243404 0.00392363 0.20177 0.221888 0.0877289 0.102325 0.00536898 -0.0681126 0.0199147 0.070619 0.226539 -0.0187944 0.0318076 0.209316 0.151923 -0.119569 -0.153686 0.167852 0.220336 -0.0151058 -0.0903596 0.0837971 0.00217058 0.0614942 -0.104442 -0.0930063 0.197514 0.117642 -0.00432636 0.0238858 0.158863 0.0917932 -0.0108078 0.044124 -0.0824185 -0.0182415 0.0225502 -0.0453895 0.0865629 0.0464009 0.112994 -0.224751 -0.162511 -0.00257891 -0.172558 0.0695211 -0.0720296 -0.146107 0.0402548 -0.0540328 0.131114 0.289532 0.204431 0.055337 0.0535028 0.00511979 0.0202876 0.0898511 0.295282 0.162604 0.125673 -0.309328 -0.173397 0.184931 0.0745963 -0.161202 -0.232722 0.0687808 -0.130704 0.0956503 -0.0904675 0.160663 0.118776 0.103135 0.0628563 -0.0692239 0.0307463 0.0902094 0.202377 0.0326762 -0.0248431 -0.143639 0.0163919 -0.0838599 -0.160339 0.0589775 -0.0395252 0.0860664 -0.1789 -0.157529 -0.216736 -0.0313035 -0.0820898 -0.0342715 -0.0643046 -0.119662 -0.0464647 -0.0701387 -0.0206839 0.0474787 0.0940911 -0.224891 -0.0684359 0.00328398 -0.019611 -0.0530385 0.0181742 0.100982 0.0632967 0.132001 0.00280317 0.0416903 0.0669329 -0.0342646 0.0621543 -0.00911881 -0.00429856 -0.113162 -0.110282 -0.24254 -0.088847 0.141975 0.185769 0.192292 -0.0348018 -0.288101 0.00254432 0.296058 0.372304 -0.0136525 0.198488 0.378553 0.010663 0.0301578 0.0390142 -0.00228194 0.186206 -0.0804004 -0.0511517 0.0972742 0.426045 0.284393 -0.192771 -0.341454 0.10161 0.456139 -0.0765015 -0.116099 0.112973 -0.150062 -0.148255 -0.0230139 0.129432 -0.0795354 -0.0750904 -0.0058189 -0.0552222 0.167716 0.0455913 -0.0486622 -0.0770335 0.10567 0.048829 0.306238 0.051246 0.0265487 0.180509 0.0801705 0.0957589 0.103599 0.0526213 0.043754 -0.0303351 -0.0578731 -0.075052 -0.0634559 -0.0151591 -0.0239804 -0.0580515 0.0577924 -0.0604543 0.00702571 -0.0786725 -0.0231245 0.0316585 0.157847 0.0465341 0.0799578 -0.0869009 0.0463855 0.0789 0.106003 0.0887557 -0.0651105 -0.0433684 0.227237 0.0047837 -0.0310863 0.119168 0.105895 0.182844 0.201347 0.180687 0.0957929 0.139351 0.157037 0.0836433 0.159392 0.113632 0.187433 0.184215 -0.0553543 -0.12271 0.0294238 -0.139086 -0.0537115 0.171829 -0.0200879 -0.0466322 0.00326718 -0.0292522 0.100935 0.0929315 0.0396734 -0.0874822 0.101943 0.0302419 -0.0159478 0.0895103 -0.127324 -0.0606921 -0.0110005 -0.08709 0.076492 -0.105871 -0.0676923 0.0377509 0.0171082 -0.0285986 0.0455801 0.0485833 0.0150673 0.174504 0.18751 0.170012 0.158506 0.14469 -0.0219704 0.0934024 0.125264 0.111166 -0.0485586 0.0751766 0.0566153 -0.143888 -0.00808198 -0.0354084 -0.156623 -0.0900993 -0.0565648 0.0557675 -0.262011 -0.0872883 -0.167196 -0.0548236 -0.0574445 -0.0690711 0.0518455 0.039417 -0.13071 -0.0564739 0.0256866 -0.0943113 0.0378567 0.0215835 0.0644143 0.0781854 -0.0152281 0.00652071 0.0888391 0.0167756 0.038091 0.178794 0.126059 0.125898 0.026271 0.00964119 -0.129869 -0.0126512 0.146357 0.158606 -0.023228 0.078447 -0.113767 0.112018 -0.0409199 -0.0808213 0.176209 0.203174 0.0349844 -0.0799849 0.132571 -0.0480249 0.113899 -0.0908796 -0.0593392 -0.0328419 -0.05029 -0.187604 -0.0450941 -0.0417193 -0.0258923 -0.151018 -0.0164273 -0.12815 -0.0563296 -0.0580071 -0.035089 -0.0895702 -0.069178 -0.0754325 -0.0330263 -0.107903 -0.00383783 0.000582655 0.0709206 -0.139726 0.0577937 -0.132218 -0.0758967 -0.13236 -0.110908 -0.0707187 -0.0359257 -0.0961354 -0.0601794 -0.0894487 -0.120497 -0.0635602 -0.000462541 -0.0773053 -0.118248 4.69423e-05 -0.135918 -0.130915 -0.0453187 0.0125631 -0.0903895 -0.0683733 -0.146466 -0.0191823 -0.0804243 -0.00501915 -0.0564739 0.0730529 0.0574316 0.00580121 -0.0048015 0.184263 -0.122899 -0.0336618 0.009566 -0.0354824 0.0835165 -0.0436534 -0.112305 -0.0327505 0.0994396 0.14774 0.117606 0.0421822 -0.0939565 -0.0771656 0.0578061 0.0781123 0.0433951 0.0825007 0.0108809 0.00251385 0.171223 0.0452528 -0.00395028 0.0524479 -0.0263388 0.0935011 0.196042 -0.0267874 -0.0476393 0.107807 0.0565648 0.0556497 0.308138 0.16941 -0.000958895 0.0548538 0.0737714 0.231651 0.0544835 0.002645 0.189765 0.0154815 0.023255 0.234171 0.0653042 0.0594031 -0.0361559 0.0944462 -0.197935 -0.0472189 -0.137429 0.0649324 0.045068 -0.000360919 -0.0561435 -0.18238 -0.0389487 0.0419243 0.11025 0.100679 -0.079959 -0.0545053 0.151907 -0.0269307 0.010337 -0.0570412 0.103562 -0.0723037 0.114509 -0.0058806 -0.219554 0.0515736 0.0478951 -0.0841979 -0.122116 0.0966829 -0.158355 0.0841864 0.0630104 -0.0279695 0.0675379 -0.0398531 0.0275153 -0.0783425 0.0658405 0.0475303 0.0878636 0.26541 0.133024 0.0613128 -0.0855182 -0.0784402 0.0314094 -0.024512 0.0332439 0.0441105 0.0561271 -0.0402019 0.10835 0.172879 0.218614 0.0200594 -0.126393 0.056195 0.0650735 -0.102937 -0.15887 -0.0471312 -0.129618 0.122359 -0.0670433 -0.0265431 0.0837924 0.106702 0.172161 0.139248 0.026171 0.0695697 0.101519 0.217082 0.0370534 -0.076782 0.112472 0.316175 0.154627 0.0259313 -0.0266036 -0.0484026 -0.0844257 0.064717 -0.0523477 -0.0725435 -0.0234889 -0.065573 -0.0905184 0.175786 -0.0181259 -0.0436838 -0.00408854 -0.0735138 -0.215764 -0.118891 -0.0759169 -0.0645609 0.0557009 -0.0296059 -0.0734904 -0.135828 -0.047295 0.018591 0.0669516 0.0487211 -0.0874289 -0.13106 -0.00332232 -0.0244465 0.00946246 0.00472879 0.103317 -0.0700216 0.00435832 0.0383985 0.136276 0.138236 0.0631981 0.132691 0.0211213 -0.0332388 0.0683232 -0.0154512 0.022805 -0.0296632 -0.142554 -0.124942 0.0217625 -0.0886792 0.109212 0.0807141 0.00592757 -0.0565843 0.095714 0.117425 -0.0593286 0.158187 -0.106814 0.0697906 -0.0609769 -0.140164 0.00243959 0.0671669 -0.0868043 0.116323 0.0305505 -0.0291235 0.0303842 -0.119046 -0.122266 -0.103678 -0.118115 0.0495257 0.184841 -0.234061 -0.0298763 0.0969281 -0.125953 0.198631 0.0923035 0.00313842 -0.195151 -0.174784 0.191304 0.0287989 -0.25339 0.0190153 0.0744789 0.15985 0.0547115 0.0161248 0.0223796 -0.00441311 0.0842624 0.130096 0.0755968 0.0183287 0.0746772 0.0545201 0.171837 0.303619 -0.0479611 -0.143775 -0.0105803 0.174671 0.141709 -0.165456 -0.0365434 0.0561166 0.120711 0.0725628 -0.0107079 -0.0163479 -0.293009 -0.243008 0.139218 0.0952054 -0.0280628 -0.000427233 0.0445002 -0.056563 -0.12998 -0.0708148 0.0204416 -0.156643 -0.0222812 -0.145803 -0.125978 0.0168207 0.0720773 -0.0910684 -0.299334 -0.139663 0.0123534 0.0101195 -0.131653 -0.279774 -0.0890746 -0.0131138 -0.0187029 -0.0186799 -0.115111 0.0514886 0.0420522 -0.0870349 0.0375407 -0.0814237 0.00813659 0.0466369 0.211361 0.0551293 0.0284034 0.142259 0.0539422 -0.0707541 0.0787506 -0.00339569 -0.0829618 -0.023976 -0.160084 0.106164 0.0579545 0.0444917 -0.0407051 0.114809 0.170262 -0.0436785 -0.0441974 0.0792468 0.181777 -0.00157959 -0.100261 -0.063584 0.159602 0.157845 -0.203314 -0.0537545 -0.0599852 -0.0102143 -0.0788081 -0.120931 0.172059 -0.107001 0.209434 -6.96391e-06 -0.00893022 -0.138671 -0.0402157 -0.0578447 -0.098501 -0.111376 -0.0565865 -0.180647 -0.0281777 0.0197978 0.0425909 -0.126982 -0.190301 0.0135305 -0.0737036 0.0553911 -0.154663 -0.161211 0.0958822 0.192373 -0.266984 0.145545 0.106886 0.000312147 -0.132826 0.151979 -0.0812859 -0.0816358 0.0804709 0.0270046 -0.0169081 0.0949642 0.0062837 0.109119 0.0100551 -0.00456399 0.0188781 0.0183261 0.0731814 -0.0795448 -0.070855 -0.0312015 0.00470304 0.0447716 0.0264382 0.127563 -0.128687 0.122197 0.0718935 0.0404578 -0.112893 0.152996 0.0770502 -0.00891932 -0.0225503 0.0689411 -0.0330363 0.116086 0.0623911 0.048002 0.0862944 0.0753812 0.094711 0.0333976 0.0563381 0.118613 0.0830614 0.0139135 -0.00333576 0.00608591 0.0705934 0.184259 0.0909638 0.113402 0.111888 0.251011 0.243334 -0.0296969 0.0363382 0.132574 -0.0026602 0.125356 0.0651164 0.0207858 -0.0704725 -0.181357 0.045081 0.00337815 -0.011987 -0.00950416 -0.175379 -0.166643 -0.0268427 0.143602 0.0910519 -0.0123719 -0.136916 -0.110863 -0.0827345 0.0605986 -0.0183198 -0.0579325 -0.0630698 -0.0784647 0.0460297 -0.0244463 -0.123185 -0.033051 -0.0956351 -0.0217319 0.0537267 0.01264 0.030996 0.057387 0.154124 0.127138 0.105178 -0.0429343 0.0680106 0.00726658 0.132777 -0.189901 -0.260452 0.035864 0.434318 0.171078 0.0165336 0.0811484 -0.0242766 0.0689671 0.0774228 -0.171683 -0.185333 -0.0191714 0.00610405 0.0179386 0.0475289 -0.00540135 -0.0148564 -0.103929 -0.228502 0.0360911 0.209539 -0.270734 -0.226864 -0.163205 0.0786246 0.0484152 0.0112793 -0.123363 -0.0337486 0.0035717 -0.0242915 -0.0409779 -0.0449366 -0.287794 -0.154902 0.166216 0.0574349 0.0335697 -0.0867553 0.124813 0.132299 -0.193259 -0.00437251 0.153855 0.0816622 0.00800743 -0.244067 -0.16465 -0.118103 0.203074 0.136212 -0.299426 -0.177625 -0.0203045 -0.107329 0.0376614 -0.100332 -0.218556 -0.0889183 -0.223242 -0.110892 -0.02402 0.0071728 -0.141699 -0.0568797 0.0777093 -0.0416066 -0.374142 -0.174388 0.0341072 -0.17556 -0.22413 -0.223385 -0.0273841 0.0261169 -0.0873047 -0.0798442 -0.214495 -0.308047 0.0316775 -0.0412184 -0.0805699 0.105169 -0.131638 -0.064106 -0.324104 0.00511623 -0.0848028 -0.136213 -0.0221499 -0.0731588 -0.0858422 -0.244155 -0.128324 0.000677027 0.0363503 -0.185916 -0.172919 -0.205414 -0.0648666 0.0990168 0.105327 -0.078431 0.032739 -0.0742877 0.0201181 0.103948 -0.071063 0.0104139 0.104061 -0.209476 0.0586644 -0.193364 -0.0217685 0.00390848 0.0394247 0.0654278 -0.207147 -0.0639658 0.124869 0.149234 0.0271781 -0.388607 -0.180885 0.0211996 0.115476 0.0649807 -0.132482 -0.155122 0.0518855 -0.0982171 0.162268 -0.0801603 -0.16958 -0.0485749 -0.133909 -0.0708223 0.0662122 -0.0855699 -0.037727 -0.107911 0.0863309 0.230414 0.169127 0.0616278 -0.181925 -0.00377492 0.271097 0.144394 -0.0681338 -0.0642911 -0.0401485 0.232023 0.253847 0.0454207 -0.0583414 0.159463 0.105754 0.0221004 -0.0323157 0.0703211 -0.173279 -0.104914 -0.0778515 0.00578793 0.0118533 -0.154737 0.203076 0.329342 0.362512 0.109141 0.109933 0.20907 0.153404 -0.0523564 0.0562669 -0.0703197 -0.0909135 -0.123688 -0.248604 -0.360884 0.0220315 -0.234555 -0.266926 -0.315318 -0.156451 0.200799 0.0640348 0.188356 0.0685417 0.0210314 0.217796 -0.077349 -0.0774522 -0.231656 0.0524792 -0.0981098 -0.120951 -0.461365 -0.35762 -0.152513 0.0545599 -0.040742 -0.00219806 0.0211166 0.0594724 0.119541 0.0579808 -0.011637 0.0571768 0.147899 -0.0560869 0.0434934 -0.0623992 -0.0113106 0.0461261 0.0975951 0.244447 0.541599 0.476281 0.0718914 -0.10527 0.00222469 0.145606 -0.0407758 0.00151166 -0.0454798 -0.0446792 -0.0418196 -0.0290363 -0.0983055 0.0679164 0.108643 -0.106737 -0.0230021 -0.0177118 0.012448 -0.0255927 0.244014 0.320567 0.360643 -0.23374 -0.344861 -0.146378 0.056662 0.224611 -0.0381761 -0.0488941 -0.323765 0.0402854 -0.21849 0.0419146 -0.133436 -0.159612 -0.0161633 -0.236818 -0.0312835 -0.29859 -0.0221747 0.011398 -0.219299 -0.0368369 -0.0958158 -0.200872 -0.326495 0.101778 -0.15597 -0.510795 -0.491005 -0.236783 -0.0457366 -0.079874 -0.134465 -0.0372805 -0.167132 -0.0990077 -0.0483882 -0.0213209 0.0306653 0.0865744 0.262217 0.0205532 -0.010218 0.0567206 -0.0898851 -0.0863463 0.00466117 0.177298 0.00801511 0.176248 0.2325 0.218435 0.160868 0.0881758 -0.198752 0.110365 -0.00125235 -0.154533 -0.0774866 0.0893034 0.0529105 -0.053966 0.104313 -0.0677188 -0.0369981 0.123841 0.172062 0.0417687 0.17518 0.0693089 0.0392931 -0.00251823 -0.147886 -0.31167 -0.333452 -0.203611 0.0472319 -0.0290735 -0.201647 -0.0826656 0.0129075 0.0878977 0.0268952 0.0707486 0.190861 0.0385491 0.0106723 0.0447018 0.140788 0.0744174 0.0811934 0.0662566 -0.0734797 -0.0674248 0.0134444 0.0585315 0.0444104 0.059663 0.0315611 0.000156444 -0.0173898 0.0211625 0.164027 -0.108784 -0.0798441 0.0397442 0.0974275 -0.0528931 0.175954 -0.0435443 -0.00853502 0.0898408 0.219735 -0.0385617 0.148542 0.0350479 0.0847563 -0.0911567 -0.0129896 -0.0694681 0.0525579 0.0355061 0.129443 0.385186 0.126322 0.0449566 -0.0212212 0.101203 0.20348 0.126347 0.0674994 0.110489 -0.0417335 -0.0729937 -0.0381875 -0.231163 0.0383035 0.0955857 -0.215798 0.0325363 -0.0812655 0.0228172 0.0796474 0.066417 0.0621718 -0.128032 0.193896 0.0982861 0.270954 -0.25857 -0.194546 0.0628156 0.163012 0.19111 0.223887 -0.193237 -0.0116234 -0.103054 0.0872956 0.227214 -0.101977 0.120753 -0.143045 0.183783 0.0337249 -0.106206 -0.0312163 -0.00871887 0.039423 0.20279 0.114446 0.0436453 -0.135448 -0.135241 -0.111047 0.0620288 -0.328522 -0.356592 -0.185087 0.0166107 0.177503 -0.0421948 0.0927986 0.257066 0.0526316 0.159707 -0.00727117 0.212219 0.383163 0.131467 0.13968 0.0687306 0.0850691 0.0331917 0.122149 -0.0975827 0.0149475 0.0664498 -0.0752476 0.0323707 0.133427 -0.204107 -0.338742 -0.582329 -0.0506263 -0.149686 -0.050064 -0.0817956 -0.149705 -0.289271 -0.0892457 0.0222278 0.0612156 -0.0077643 0.190044 0.0825732 0.0536296 0.171793 0.0382759 0.0138674 -0.0528256 -0.124455 0.0982172 -0.122646 -0.103377 -0.0745983 -0.153353 -0.215628 -0.168715 -0.282495 -0.274426 -0.083349 0.083096 -0.155799 -0.0621828 -0.152747 0.246292 0.0177499 0.0957412 0.00146157 -0.0845006 0.202264 0.0831556 0.036205 0.0784524 0.0516434 0.0592161 -0.206648 -0.1522 -0.0926442 -0.214471 0.0828506 0.186602 0.070446 0.20812 0.163313 0.205894 0.0752261 0.371279 -0.0709459 0.0582049 -0.0976538 -0.00467732 -0.225536 0.199809 -0.0901828 0.0395905 0.0220269 -0.116394 -0.392485 0.161392 -0.0242259 -0.099001 -0.043751 -0.163623 -0.0794645 0.0836335 0.156003 -0.109883 0.00954517 0.0765529 0.227884 -0.0272738 0.0344823 0.0589306 -0.145479 0.0455636 -0.117406 -0.239714 0.141746 -0.0412091 -0.0412572 -0.431428 -0.235955 -0.0269079 0.0829576 -0.194705 -0.346401 -0.187662 -0.0329397 -0.202128 -0.13719 0.00897374 0.57056 0.224306 -0.05076 -0.0762327 -0.0422975 -0.000822779 0.0151328 -0.107526 -0.214222 -0.0338047 -0.125971 -0.0395883 0.0640948 -0.116331 0.0855849 0.0883005 0.0401121 0.0786174 0.00949652 -0.0880879 -0.021807 0.145023 0.0964373 -0.17785 -0.166674 -0.102802 0.0199577 0.0147789 -0.0755014 0.0396033 0.132632 0.0948027 0.00578459 -0.11654 0.00161293 -0.22226 -0.0249772 0.0355964 -0.0154469 -0.00550406 0.231791 -0.0138293 0.0739109 0.135068 0.116817 0.109487 0.0797954 0.0906703 0.139533 0.0349985 0.0541897 -0.070508 -0.0292174 -0.16669 -0.349725 -0.144967 -0.190775 -0.127164 -0.0778455 -0.0905098 0.245725 0.101782 -0.00980216 -0.0198147 -0.0786988 0.0580395 0.20089 -0.0347473 -0.00397142 -0.164657 -0.0291324 0.0481041 -0.0814057 -0.0657893 -0.0367821 -0.0355136 0.0450402 0.0148072 -0.0122288 -0.157527 -0.105014 -0.0984937 0.0255625 0.0158561 -0.0428685 -0.237356 -0.0666645 0.147924 0.0913448 -0.0943802 -0.133633 -0.0754077 -0.051917 -0.0808891 0.17042 0.00204615 -0.0193974 0.154376 0.0393612 0.274494 0.279485 -0.0150759 0.014246 0.0552441 0.00164378 -0.0292641 0.143621 0.207038 0.147261 0.0404585 0.189994 -0.013354 -0.0154119 -0.127742 0.0108974 0.0688974 0.130848 0.1157 0.0532054 0.0373943 -0.0129582 0.0462562 0.0541877 0.018388 -0.123828 -0.381667 -0.334104 -0.00315364 -0.098087 -0.160861 -0.114767 -0.00600326 0.0147534 -0.139803 0.0501161 0.112993 0.075222 -0.0767235 0.0415552 0.145785 0.0995519 -0.0127404 0.0268111 -0.0653161 -0.162083 -0.197839 -0.196237 -0.137131 0.049891 -0.0969395 0.30144 0.259347 0.164664 -0.135279 0.0659562 -0.292973 -0.0387527 -0.0461299 0.107843 -0.066653 0.183961 0.221254 0.121648 -0.1662 0.0695942 0.00620419 -0.0318703 -0.122933 -0.0415621 0.0703293 0.116009 0.0379368 0.0309959 -0.150805 -0.139089 -0.00803642 -0.243863 -0.0329983 -0.034475 0.0526726 0.111191 0.132359 -0.136047 -0.047107 -0.208505 -0.0368457 -0.0638287 -0.0188024 -0.0332309 -0.156124 -0.0406468 -0.0250511 0.0570889 0.00965514 -0.0214263 0.0151978 -0.0289742 -0.0951472 -0.0482205 -0.0152956 0.0244407 -0.120798 0.0340607 -0.00829787 0.0685282 0.101588 0.0285086 -0.0238976 0.0205941 -0.0343541 0.0766046 0.026214 -0.0353038 0.0359079 0.03193 -0.0432698 -0.0623942 -0.00254272 -0.0656578 -0.132385 -0.0962657 0.020132 0.186274 0.0549614 -0.224492 -0.0202709 0.0252174 -0.0645012 -0.0991214 -0.155155 -0.12207 0.0212877 0.136717 -0.00267053 -0.148327 0.0224016 -0.0714528 0.158602 -0.00946548 0.0779691 0.194273 0.00538263 0.0444259 -0.111057 -0.0726564 0.218081 0.0423226 0.0467171 -0.0185089 0.222629 0.164389 -0.155789 -0.149877 0.388284 0.154188 0.0579495 0.0802763 0.0488644 0.00703496 0.0929263 -0.0172281 -0.131779 -0.00295116 -0.0520507 0.0155887 0.0962953 0.060227 0.0204318 -0.0231484 0.111438 0.0632479 0.00110573 0.0190685 0.00476272 0.285034 -0.104123 -0.13264 -0.00549054 0.259837 0.0831825 0.0116237 0.0556101 -0.0543883 0.153768 0.0665141 -0.0161102 -0.160283 -0.221439 0.0841464 0.0179834 -0.0218658 0.037989 0.141962 0.00423515 0.131476 -0.0913279 -0.0875189 -0.0909166 0.0821213 -0.180684 0.186175 0.109714 0.0632617 -0.203384 -0.191898 -0.399294 -0.0290901 0.0252457 0.155753 -0.133013 0.0811629 -0.115565 -0.108024 0.180408 -0.00154337 0.0172734 -0.0674451 -0.0223533 -0.054594 -0.0216575 0.0730052 0.325469 0.325454 -0.0716326 -0.312802 -0.138962 -0.123605 -0.0608842 0.0288504 -0.147628 0.12839 -0.0723372 -0.039893 0.104786 0.0489538 0.0710395 0.033675 0.00382759 -0.161185 0.043074 -0.0466449 0.0539541 -0.0291385 -0.0566258 0.108542 0.00297407 0.198135 0.0418348 0.18473 -0.214739 0.0600064 0.0327478 0.0540033 -0.0344404 0.0801795 0.153527 0.0872165 0.0299721 0.0611606 0.156376 -0.00663969 -0.000609185 0.173574 0.0622958 0.066816 -0.0370277 -0.0518452 0.0834264 0.039159 0.0847093 0.0789788 0.0553842 0.109077 0.133451 -0.0289549 0.100784 -0.000205097 -0.0469487 0.0026005 0.226539 0.0907795 -0.0323525 -0.0722284 -0.00499283 0.100484 -0.0439603 0.0686885 0.00373625 0.146005 0.277084 -0.115822 -0.0101356 0.0227698 -0.0131896 -0.0707529 -0.0789135 -0.302866 -0.0961036 0.0595783 0.108507 -0.155904 -0.0358352 -0.105472 -0.0345677 0.00949977 -0.0376512 -0.105166 -0.209391 0.00294237 -0.0235712 -0.0909264 -0.0745622 -0.0391945 -0.00222365 0.0403002 -0.0435316 -0.113739 -0.0901915 0.074413 0.0543063 -0.0652903 0.161579 0.231675 0.00663353 -0.091706 -0.017127 0.0626571 -0.0149517 -0.143468 -0.117396 0.1037 -0.0514885 -0.0358409 0.0372762 0.030073 0.00884158 -0.213653 -0.116201 -0.0024697 0.0510876 -0.00555564 -0.0163949 -0.0752938 0.0173478 -0.0104713 0.0108728 -0.0153341 -0.179548 0.0596579 -0.0867632 -0.0105344 -0.0422583 -0.0677191 -0.0478729 0.0518466 -0.069232 0.0138886 0.0428961 -0.170126 -0.0276147 0.150083 -0.0369112 0.000300664 -0.0914701 -0.0183138 -0.0833208 -0.102431 0.0821821 -0.0520647 0.109475 -0.0680669 -0.0163039 0.079366 -0.0459349 0.114133 0.0149159 -0.134891 -0.0801662 -0.0128539 -0.0147771 0.00595123 0.0992996 -0.0331473 0.0291062 0.176797 0.0285959 -0.0974828 0.0306719 0.0247781 -0.0651856 -0.0330649 0.151375 -0.0241796 0.0222594 0.104353 -0.0352576 -0.0474458 -0.228042 -0.0569384 0.120857 -0.0413435 -0.0159852 -0.0402079 0.0917856 -0.00430872 -0.0775343 0.124218 -0.0088074 -0.054542 -0.0321932 0.0131477 -0.102554 -0.134454 -0.10113 -0.012214 -0.0179522 -0.00468204 0.0863363 -0.0436524 0.0889993 -0.0570455 -0.222178 -0.173111 0.0854284 -0.0255402 -0.0192215 0.100744 0.115837 0.121385 0.00649602 0.0540245 0.00790096 -0.0098785 -0.047318 -0.109536 -0.013543 0.0664864 -0.00798188 0.00474351 0.083637 -0.0392475 -0.0809888 0.0331748 -0.0305992 -0.0624476 0.0163347 0.00175944 -0.0193745 0.0539726 0.060949 0.100449 -0.0790542 0.00615078 0.0658954 -0.0151732 0.0226568 0.283198 0.178893 0.176036 0.141482 -0.0345912 0.063066 -0.0820465 0.0303557 -0.00746922 0.053459 0.0379637 -0.0927241 0.0233302 -0.0341198 0.0357892 0.0682213 -0.0826264 -0.0693212 -0.00763623 -0.227227 -0.121516 0.0201975 -0.136257 -0.000588524 -0.0519191 -0.153088 0.00968313 -0.0819923 -0.0396332 -0.123704 -0.106311 -0.00655136 -0.0752334 0.0307061 -0.0929021 -0.0282494 -0.0688979 -0.0192574 -0.0388481 -0.0606033 -0.0261367 -0.0399978 -0.0593497 -0.0210871 -0.0774679 -0.125773 -0.0552795 0.000185574 -0.109291 -0.0440222 -0.0860088 -0.0561808 -0.0189235 -0.1684 -0.10773 -0.103715 -0.00816552 -0.0131228 -0.101582 -0.0647933 -0.144707 -0.0931491 -0.0113204 0.0837518 -0.0326243 -0.108365 -0.0577755 0.0348668 0.0383375 -0.0305861 0.0803904 0.121918 0.193559 0.0576128 -0.0101968 -0.0351612 0.111825 0.211739 0.0802815 0.164031 -0.0278641 0.00701187 -0.0201179 0.0100232 0.14118 0.0451479 0.0632126 0.0101899 0.00861246 -0.00364802 0.0402609 -0.180647 0.0142684 -0.0526388 -0.226244 -0.256211 0.0048219 0.0492891 -0.199306 -0.0353938 -0.187038 -0.129961 -0.0353447 -0.0613219 -0.126908 -0.10922 0.149597 0.0242008 0.166144 0.173197 -0.0764738 0.0734939 -0.013454 -0.0164641 0.00900927 -0.0109702 -0.0193918 0.0831555 0.11187 0.00238461 0.255306 -0.027867 0.0510112 -0.155581 -0.059145 0.10567 -0.0110829 -0.0736129 -0.00510333 -0.0700562 0.0117562 -0.0752951 -0.0594165 0.0185561 0.0818342 -0.0435129 0.0321555 -0.0610707 -0.0182016 -0.0731575 -0.0838282 0.0818476 -0.0339647 0.0496457 0.111934 -0.0627345 0.187447 0.0667921 0.0418591 -0.126843 0.1691 0.132161 -0.000368189 0.00938062 -0.0194621 0.139062 0.0200264 0.0779993 -0.0642457 -0.0737437 -0.00639308 0.132478 -0.0636871 -0.0643875 -0.1582 -0.0375281 -0.0903808 0.0854832 -0.117273 -0.0462738 0.0334264 0.0987165 0.0479584 0.0279435 0.0200539 0.0486411 -0.148509 -0.0722666 -0.0545095 -0.0423909 -0.0179402 0.133828 -0.0667459 -0.00248263 0.10839 0.0542468 0.141862 -0.0163238 -0.200925 -0.181698 -0.0602588 0.00957188 0.032712 0.046867 0.0222903 0.0398779 -0.0425592 -0.0720147 -0.172185 -0.0972845 -0.0119343 0.00689438 -0.0650871 0.0407972 -0.0932545 0.00188021 0.0859447 0.0918002 -0.0206517 -0.017313 -0.224379 0.0209103 0.0514038 0.142811 0.0919519 0.162007 -0.0269773 -0.0630684 0.0969759 0.0916074 0.208033 -0.0203861 0.061026 -0.0135721 -0.0451363 0.00720777 -0.0498535 0.118516 0.0918606 -0.0920992 0.0732209 0.121976 0.00553037 0.136691 -0.0273234 -0.00234234 -0.0209179 -0.0912814 -0.0739481 -0.0362925 0.0234363 0.0349087 -0.0499389 0.0774836 0.00146478 -0.211134 -0.349728 0.0105235 0.109056 0.048795 -0.112609 0.034667 -0.0356618 0.0612498 -0.065828 -0.038949 -0.0835615 -0.0807941 -0.082762 -0.0493596 -0.00295049 -0.0491933 -0.0695308 0.0380056 -0.0575423 -0.191648 -0.051969 0.136761 0.00340288 0.0474393 -0.216111 -0.145306 0.105051 0.182309 -0.294901 -0.214151 -0.00959993 0.0813492 0.0386759 -0.0405835 -0.0503834 -0.140638 0.0438137 0.0623882 -0.0570925 -0.00400134 -0.102815 -0.0267357 -0.00749415 0.100861 0.101368 0.097296 -0.133193 0.0187821 0.0308247 0.395991 0.15582 -0.262951 -0.125954 -0.0504151 0.388425 0.154125 -0.11171 -0.173489 0.0579989 0.0919916 0.348564 -0.0372195 -0.295208 -0.173464 0.233821 0.324234 -0.0440869 0.111157 -0.0591153 -0.000644752 -0.117202 -0.113201 -0.0680516 0.0934245 -0.0918286 -0.149968 -0.203661 -0.00266158 -0.00946365 0.00313164 -0.326895 -0.302904 -0.103681 0.0249015 0.00263042 -0.17562 -0.133977 -0.14529 -0.0160438 0.00220794 0.144372 0.0769101 -0.214553 -0.111588 -0.175578 -0.201212 0.0104137 -0.0781696 -0.0937437 -0.154211 -0.115233 -0.0707836 -0.0664292 0.0779326 -0.0587579 -0.0425739 -0.077136 -0.0339178 -0.208412 -0.064007 0.07308 -0.0548744 0.0244388 -0.11094 -0.170634 -0.268688 0.110634 0.0685693 -0.0593107 -0.0964744 -0.0567405 0.0540982 -0.0647266 0.0261282 -0.0893185 -0.0397781 -0.0982411 -0.0496046 0.0293471 0.0399418 -0.0652544 -0.0611027 0.0161607 0.147703 -0.0637329 -0.099446 0.134259 -0.0271701 0.0171644 -0.012045 -0.112069 0.0962 0.13906 0.0463519 0.0407233 0.0167812 -0.00483712 -0.0184411 -0.185124 -0.201391 -0.0650672 -0.0730957 -0.122681 -0.00802822 -0.027869 0.0423086 0.0527744 0.00169581 -0.196155 0.133601 -0.026081 -0.236303 -0.00747307 0.20777 0.0490006 0.0114005 0.127174 0.0845867 0.166164 0.0822148 0.0995345 0.114416 0.130582 -0.00661149 -0.0551633 0.0643212 0.15656 0.0887116 -0.00972285 -0.00642052 0.0193017 -0.00773211 0.0280588 0.0440531 -0.00837518 -0.0497529 0.0415607 -0.00685765 -0.0397155 0.0284511 0.0846922 0.0614392 0.0567838 0.14755 0.126859 0.143566 0.106463 0.0605959 0.0590526 0.337862 0.101641 0.137643 0.116525 0.0352149 0.133838 0.0978178 0.115071 0.05265 -0.0270962 0.0593905 0.0387673 0.10996 0.0916327 0.0349944 0.0602636 0.118721 -0.0263651 -0.0754094 -0.0505827 0.0065448 -0.0575745 0.0456203 -0.156736 0.0634974 -0.0789271 -0.0898168 -0.0609853 -0.00905684 0.0769319 0.032156 -0.089646 -0.0405276 0.15094 0.202826 -0.0511889 0.0138782 0.0129613 0.0544566 0.105425 -0.0284466 -0.0775453 -0.196126 0.111435 0.196945 -0.0361438 0.0184674 -0.167755 -0.148889 0.0559369 0.0655984 0.157773 -0.161237 -0.110168 0.0294338 0.104197 -0.201442 -0.041388 -0.0846816 -0.0802832 -0.248615 -0.083401 0.0811305 0.166283 -0.13381 -0.0714907 -0.295936 0.0944164 -0.0261323 -0.0539299 -0.07459 -0.0994305 -0.0167527 -0.111156 0.113516 0.0185242 -0.0933151 0.0571237 0.115526 0.0853287 -0.019983 0.0646198 -0.0539987 0.0769757 0.0742206 -0.00724765 -0.0322606 0.0133869 0.0606959 -0.0770694 0.0336691 -0.0710818 0.0945169 0.0677906 -0.0273328 0.0930186 0.171618 -0.0460588 0.053483 -0.111001 -0.0449487 0.0252845 -0.0892188 0.0363695 0.179583 0.215142 -0.0521379 0.0509252 -0.21053 -0.0413372 -0.0295936 -0.00540562 -0.0284941 -0.0723252 -0.0915974 -0.190856 -0.0473752 0.0741993 -0.113457 0.0062604 -0.181015 -0.0754109 -0.0814621 -0.00525008 0.12211 -0.0341823 -0.145856 0.118749 0.389488 -0.0982254 -0.258564 -0.249186 0.0588485 0.163334 -0.135655 -0.174686 -0.389381 0.107298 0.0347681 0.00856947 -0.15638 -0.238278 0.0350317 -0.000297359 0.110532 -0.00233388 -0.0279771 0.340285 0.147033 0.0193573 -0.126752 -0.000285111 0.297234 0.0452418 0.0328775 -0.0966409 -0.0835138 0.100447 0.0751286 0.0153168 -0.0278275 -0.141892 0.0680043 0.157061 -0.121244 0.0938971 0.0506907 0.0830159 0.000180455 -0.0131977 -0.0862153 -0.0831838 0.133089 -0.0134706 -0.0451841 0.0516963 -0.0225845 0.0407765 0.0917568 0.0897875 -0.0384592 0.0535443 -0.109224 0.0557842 -0.0471034 -0.155928 -0.178585 0.0512865 -0.0763413 -0.140947 -0.157108 -0.0471051 -0.0798091 0.043233 0.00213885 0.27417 -0.0148869 -0.156172 0.0230094 0.0685255 0.256375 -0.0258149 -0.283389 -0.16863 -0.0484309 0.0923361 -0.039036 -0.352489 -0.128838 -0.0258746 -0.0239792 -0.0725023 -0.10011 0.0635071 0.0823397 0.256621 0.204531 -0.0941347 -0.0858229 -0.11922 -0.0346677 -0.0847419 -0.0444649 0.0651595 -0.0608907 -0.167321 -0.153348 -0.111948 0.028316 -0.00531101 -0.0579147 -0.0901675 -0.10488 -0.121628 -0.0184079 -0.120422 -0.057064 -0.0864001 -0.159525 0.0320183 0.0129188 0.0133426 0.055157 -0.0520566 -0.010317 0.028407 0.0648081 -0.0466644 -0.130314 -0.119037 -0.05831 0.0807806 -0.160573 -0.114863 -0.14386 0.033685 0.209838 -0.0142111 -0.0634482 0.0429421 0.110185 0.0160453 0.136271 0.104483 -0.175279 -0.0909984 -0.0655797 -0.0335448 0.0857015 -0.0121093 -0.0162702 -0.0327724 0.0051772 0.0867893 0.0882876 -0.142127 -0.133705 -0.018591 0.0426006 0.0474786 0.078932 0.159606 0.0571927 0.0736547 0.0933675 -0.0244409 -0.000419925 0.0031488 -0.115217 0.117285 0.0939048 0.0258127 0.328777 -0.0452963 -0.089811 -0.106248 -0.0693336 0.105213 0.0438048 -0.0489504 -0.133189 0.147049 -0.00468143 -0.137606 0.0241064 -0.0512168 0.014914 -0.17712 -0.201183 0.01663 -0.0502978 -0.00588073 -0.259881 -0.21323 -0.0531439 -0.171189 0.0723855 0.0636476 -0.137072 -0.173411 0.0134576 0.132857 -0.0959268 -0.110698 -0.126508 0.0570381 -0.0142258 -0.216908 -0.138767 -0.08186 -0.134756 -0.187118 -0.258114 -0.0917069 -0.0167603 -0.047372 -0.0896508 -0.107257 0.166968 0.0685556 -0.126992 -0.0426874 -0.0919599 0.242155 0.0639676 -0.00110086 0.0270476 0.121442 -0.113008 -0.107792 -0.0893884 0.048145 -0.0386469 0.0599758 -0.133795 -0.0223187 0.100644 0.0514175 -0.0684069 -0.0256591 -0.0554541 0.0271133 -0.0562937 0.00152599 -0.0230611 0.0883976 -0.0314297 0.145267 -0.231692 0.00433607 0.0797751 0.0712964 0.112616 0.0512846 0.00327205 0.0590064 -0.0281737 0.112761 0.0605379 -0.0876825 -0.0509576 -0.00211407 0.00736701 0.214158 -0.0439191 -0.0390968 0.00574121 0.173184 0.106082 -0.104214 0.10668 0.168374 0.157818 0.113704 0.120972 0.175126 0.112483 0.121294 0.0800483 -0.0241712 0.0663466 0.0986122 0.0586564 0.121627 -0.0417382 0.091308 0.0755955 0.0324639 -0.0617703 -0.00570718 0.0742645 0.105665 0.0405085 0.149601 0.0583474 0.15833 0.10376 0.112111 -0.0194089 -0.0643695 -0.0334339 0.0794335 0.0337668 -0.164158 0.0124489 -0.0686233 -0.0771709 -0.050991 -0.0350211 -0.0122998 -0.0342985 0.00533625 0.0685753 0.00505841 0.252901 -0.155814 -0.096865 -0.113183 -0.0480263 0.00521442 -0.152619 -0.100413 0.181813 -0.0822432 -0.155004 -0.17388 -0.0610029 -0.0507894 0.0311609 -0.0428796 0.0866901 0.122454 -0.0239224 -0.353414 -0.0589463 0.0191854 0.171113 -0.199458 -0.220129 -0.145442 -0.0636563 0.0259256 -0.111525 -0.093984 0.0897748 -0.024044 0.150486 0.0998603 0.0609776 0.0876754 -0.0543687 -0.225254 -0.0109016 0.0768686 0.0981662 0.157232 -0.0417745 -0.00192781 0.011722 0.102114 -0.00398872 -0.123601 -0.105126 0.0776741 0.137919 -0.0531743 0.0240525 0.041768 0.0321042 0.100131 -0.130769 0.00185822 0.0458608 -0.034025 -0.112674 0.0795068 -0.135518 -0.0586673 -0.0800441 0.0315749 -0.220186 0.0868587 -0.0122019 0.0719712 -0.0249863 0.0469005 -0.07485 0.070955 0.0444132 -0.0119386 -0.0443835 0.0284515 0.0605996 0.265815 0.0794476 -0.124137 -0.1598 0.229296 -0.000227791 0.0398352 0.127916 0.0657215 0.0646346 -0.061937 0.191944 0.0853207 -0.0124408 0.191021 0.201046 0.0750024 -0.0314607 -0.122938 0.0206088 0.134237 -0.04242 -0.169524 -0.121417 -0.00710146 -0.0166643 -0.0379315 0.0501103 -0.144261 0.00534044 -0.175933 -0.0278508 0.16927 -0.131022 0.0374236 0.0471977 0.129334 -0.167043 -0.108468 -0.0197023 0.135654 -0.145386 -0.00546333 -0.10208 -0.0586277 0.0782008 -0.211975 -0.11458 -0.116082 -0.0305292 -0.11485 0.00260832 -0.250192 -0.0686183 0.0338234 -0.236612 0.0847231 -0.102001 -0.121308 -0.0686709 0.107406 0.246879 0.235746 0.111846 -0.124779 0.00222364 0.00272104 -0.0958572 -0.113866 -0.179027 -0.161587 0.118629 -0.193547 -0.0964191 -0.161402 -0.152671 -0.138046 0.000193266 0.0959035 -0.149236 -0.00148383 -0.0279993 -0.168671 -0.0574532 -0.0226781 0.0459963 -0.251916 -0.00729012 0.0462265 0.0480806 -0.0296132 -0.0279157 0.0118719 0.148116 -0.0297892 -0.130723 -0.0116235 -0.0688824 -0.0769829 -0.138007 -0.150018 0.0261554 0.144838 0.120561 -0.158279 0.0535385 -0.0399768 -0.0750275 -0.0546259 -0.226541 -0.278753 -0.156317 0.0147764 -0.0714478 -0.118853 -0.104382 -0.0384807 -0.0158198 -0.0223584 -0.0404712 -0.0489878 -0.168112 -0.108963 0.0224936 0.00502095 -0.0614595 -0.0452267 0.0410233 -0.0440661 0.0504404 -0.0256137 -0.00756087 0.047125 0.167723 0.103079 0.18652 0.154677 -0.102861 0.0417938 -0.032887 0.0353234 0.00537275 -0.152852 0.0195782 -0.106352 -0.0703583 0.0619801 0.065872 -0.0765139 -0.196165 -0.155951 0.00406753 0.0610833 0.0652263 -0.0691845 0.0132637 -0.179236 -0.0939631 0.0507784 -0.0491053 -0.0020878 -0.14284 -0.135623 0.032155 -0.00494199 -0.0921105 -0.155982 -0.0686733 -0.0203101 0.0342889 -0.0231126 0.016557 -0.0188341 -0.0930943 0.0886939 -0.0159026 0.0190894 -0.0917804 0.0767691 0.144384 0.0239904 0.123431 0.147131 0.00399247 0.108329 -0.0416382 -0.00706598 0.133567 -0.119922 0.162954 -0.0563641 0.154729 0.174326 -0.0271511 0.00695365 -0.106668 0.0821297 0.109311 0.118903 0.0476687 -0.0659349 0.00503765 0.0800436 0.00778767 -0.111988 0.00722949 0.0734267 -0.0193561 -0.101793 0.0403363 0.11218 -0.0854685 -0.094239 0.0573409 -0.181592 -0.0163749 0.0411918 0.0450683 -0.0315815 -0.0675057 0.00840485 -0.037782 -0.0783506 0.0411969 -0.0296307 -0.0319591 -0.0255764 -0.031722 0.000415902 -0.0514271 0.0275039 0.0174504 -0.00770659 0.0808229 -0.132839 -0.020477 0.0884591 -0.182694 -0.0145254 0.0167165 -0.0481679 -0.155987 0.148646 0.0614562 -0.0824936 0.0140443 0.00618355 0.152096 0.0205091 -0.0319387 -0.0187273 -0.0650213 0.0898094 0.10323 0.0611015 -0.0149091 0.0711358 0.145857 -0.101698 0.131858 -0.0680459 0.0221754 0.13365 -0.0356235 0.102496 -0.0839091 -0.0471764 0.14763 0.0662931 0.141204 0.0362554 -0.0469928 0.0409223 0.05584 0.0622617 0.10995 -0.010169 -0.0151773 -0.0606632 0.108891 0.0833515 0.192193 0.107674 0.136075 0.075701 0.26261 0.0764098 0.212778 0.0792852 0.12633 0.0914316 0.0962674 0.103469 0.111793 0.13108 -0.00123992 0.0525801 0.0678611 0.179902 0.0887921 0.0015003 0.0355797 0.130299 0.0603912 0.0613572 -0.0439273 -0.104942 0.0154209 -0.0476842 0.0923304 -0.0250896 -0.19737 0.0811498 0.00244743 0.0963324 -0.0228968 -0.244225 0.00302876 -0.0158506 0.148222 -0.0247244 0.00807675 0.076365 0.0697375 0.135049 -0.165201 -0.113885 -0.0181715 0.0566215 0.0602916 -0.100161 -0.0757296 -0.0547421 -0.0786365 0.0292536 -0.149301 -0.0408055 0.16322 -0.115149 -0.111911 -0.00809859 0.157056 0.192565 0.0630853 -0.0799142 -0.12161 0.0401805 0.202455 -0.190039 -0.0482449 -0.00244071 0.0145956 -0.0997105 -0.103677 0.0883393 0.0841865 0.0296088 -0.0786381 -0.186011 0.0648859 0.147219 0.0703093 -0.0170193 0.068201 -0.0307887 0.0139917 0.165799 0.0721788 -0.0212199 0.0174172 -0.0379124 -0.0747603 -0.0639829 0.0336522 0.208808 -0.0761908 0.168176 -0.0565106 -0.0855395 -0.113014 -0.054004 0.0826251 -0.0835949 -0.130355 0.0660012 0.176466 0.0563034 -0.154583 0.0375287 -0.0963023 0.07253 0.106913 0.0700672 -0.151096 0.120991 0.0589533 -0.230327 -0.178328 -0.0736363 -0.0161327 -0.0361846 0.0611021 -0.0332527 -0.0907125 0.0833054 0.157165 -0.145481 0.0525754 -0.108819 0.124231 0.00567229 -0.123887 0.0826953 -0.137163 -0.0343329 -0.040436 0.0282535 -0.114037 -0.00806262 0.0119583 -0.184315 -0.0526785 -0.0042784 -0.0443281 0.109 -0.156679 -0.0967946 -0.106992 -0.194736 0.0172401 -0.115562 0.0469327 0.0763746 -0.118047 -0.125684 -0.14353 -0.150946 0.00934053 -0.137416 -0.0493123 -0.0011241 -0.186515 0.0266269 -0.173105 0.153139 0.0012466 -0.0620354 0.0686945 0.0213788 0.106353 -0.0577476 0.117867 -0.0879556 0.0157256 -0.0333899 -0.126446 -0.0181167 0.0767083 -0.0864924 -0.0592102 -0.13576 -0.0505857 0.0938967 -0.0265691 0.00814108 -0.0805238 -0.0346389 0.0940658 0.0648548 0.0793316 -0.139494 -0.0685007 -0.0426378 -0.018077 -0.0547552 0.061533 -0.0631883 0.129212 -0.0944386 0.0290885 0.0781103 -0.163795 -0.134305 0.092792 -0.169016 -0.0133465 0.11258 -0.118512 0.0528453 -0.00921001 -0.0187421 0.0110891 0.0579969 0.00425417 -0.0324212 -0.0371184 0.0819961 -0.0389831 -0.0702628 -0.172037 0.0613465 -0.0639645 0.0673482 0.0198355 0.138722 0.108565 0.0900694 0.0760195 0.40828 -0.11234 -0.170178 -0.261464 0.252264 0.286316 0.118245 -0.0319293 -0.121063 0.290326 0.0272424 0.287561 0.167606 -0.0776518 -0.104023 0.0621547 0.242003 0.28645 0.0653525 0.0645657 0.0717908 -0.102075 -0.020397 0.0497569 -0.104056 -0.134987 -0.0654024 0.291624 0.224349 0.0474695 -0.289507 0.0493118 0.270379 0.211944 0.0410703 -0.208785 -0.204949 0.179993 0.144466 -0.330908 -0.267754 -0.126536 -0.0579109 -0.0299845 -0.101925 -0.0558279 -0.0231737 0.0030899 -0.0565139 -0.108261 -0.00482277 -0.0142737 -0.187453 -0.192345 -0.243439 -0.0504025 0.0197351 -0.0248405 -0.00750912 0.218706 0.0804212 -0.0257657 0.237559 0.117572 0.148284 0.0764902 -0.0207124 0.357272 0.174826 0.0983121 -0.051867 0.145779 -0.132377 -0.152957 -0.016911 -0.2501 0.256865 0.112987 0.0414407 -0.00634009 0.277031 0.194761 0.309788 -0.136312 0.158441 0.142086 0.371284 0.111419 -0.184939 0.157929 -0.142242 0.162808 -0.045246 0.118291 0.0159363 0.0770873 0.0389664 0.0755236 0.0722798 -0.211818 -0.226269 0.127975 0.133292 0.329845 -0.0785046 0.197755 0.35459 0.190988 0.278257 -0.0232554 0.163928 0.332935 -0.00727215 0.351455 0.21039 0.119376 0.0423788 -0.039889 0.146268 0.086083 0.13085 -0.121916 -0.0575497 -0.199452 -0.356269 -0.262787 -0.140412 -0.250658 -0.236994 -0.109865 -0.0213938 0.0641998 -0.342207 0.0901103 0.0836251 0.184895 0.0978365 -0.156709 -0.0352594 0.249665 -0.0216712 0.121875 0.086429 0.0728884 -0.0437638 -0.0356512 0.0462737 0.00371512 0.197677 0.242517 -0.00911869 -0.0637903 -0.0456466 0.126592 -0.24549 -0.283507 -0.175122 -0.0967607 -0.00377238 -0.449025 -0.0505702 -0.141318 -0.0244987 -0.142463 -0.363427 0.00707029 -0.0797954 -0.0755655 0.136473 0.0244249 -0.120348 -0.0844584 -0.0264845 -0.0483092 -0.150708 -0.0456318 -0.0607216 -0.064097 0.149213 0.0725781 -0.197237 -0.0365978 0.0273918 -0.0944614 -0.138919 -0.111705 -0.156183 -0.255118 -0.199895 -0.243433 -0.0585794 -0.0447102 -0.260356 -0.138084 -0.0470705 -0.160504 0.0335349 -0.105425 -0.319606 -0.0689122 -0.175326 0.00834104 -0.0142566 -0.154286 0.228227 0.330431 -0.0264752 0.075885 -0.0121651 0.103601 0.0913435 0.134522 0.180359 -0.0322003 0.0626294 0.0410218 0.0703002 -0.0152737 -0.00864322 0.00667675 0.0691617 0.158513 0.270358 0.428334 0.371702 0.000802875 0.153784 0.124099 0.105771 0.0988966 -0.0870373 0.0651673 0.0708489 0.22268 -0.19118 -0.571514 0.0716016 -0.366331 -0.261892 -0.256901 -0.124938 -0.145448 -0.227437 -0.128831 0.00902857 0.238778 0.094537 0.128143 -0.076443 -0.169633 0.0827234 0.16839 0.00192598 -0.0287689 -0.0574511 0.0389885 0.0413545 0.0324295 -0.0844628 0.171327 0.0438412 0.00196009 -0.0709907 0.145737 -0.166078 -0.07831 -0.0788387 -0.292863 -0.132846 -0.0506639 0.063718 0.0665204 0.0841879 0.0563387 0.0475895 0.0368576 0.0974876 0.125423 0.272943 -0.0694638 0.180735 0.103267 0.236431 -0.00574878 0.0170318 -0.0237432 -0.104929 0.0713768 0.00760944 0.0634446 0.0890506 -0.0630327 -0.102181 -0.035281 0.135978 0.0621183 -0.236384 -0.200891 -0.194727 0.0789462 0.0818695 -0.122957 -0.00494303 -0.0792924 0.153828 0.365079 -0.126531 0.130566 -0.0303926 0.168281 -0.238568 0.0540021 0.198544 0.198314 0.0339785 0.238043 -0.167495 -0.154018 0.0406059 0.167575 0.131133 -0.0627996 -0.0458852 -0.061798 0.153434 0.365171 -0.158327 -0.149696 -0.188991 0.318899 0.0543139 -0.217217 -0.421731 0.05054 0.159748 0.133419 0.0589408 -0.0405447 -0.021273 -0.0670871 0.223427 -0.14053 0.153528 -0.20814 0.141218 -0.399635 -0.000507423 0.0623643 0.0217723 0.10889 0.140604 -0.0304163 -0.000177816 -0.0662888 0.105084 -0.223502 -0.202468 -0.0372139 -0.0513007 0.0318509 -0.0390015 -0.357619 -0.097395 -0.0862471 0.108964 0.0800882 -0.0197532 -0.169646 0.0948397 0.169814 -0.0743261 0.210462 0.213216 0.120638 -0.0391666 -0.259069 0.19902 -0.0515582 0.0652345 -0.172177 -0.381933 0.310348 0.0780287 0.151259 -0.377531 -0.0854154 0.273485 0.0114473 0.25703 0.0661052 0.12743 0.080733 0.197431 -0.00401547 0.0973659 -0.0120739 -0.060321 0.020295 -0.0438974 -0.0736931 -0.00467219 0.227212 -0.309052 -0.115437 -0.0903819 0.024028 0.0594059 0.118474 -0.0430525 -0.122782 0.0105614 -0.00231324 -0.112001 -0.258186 -0.211819 -0.124189 -0.097523 0.0774872 0.0398162 -0.0327379 0.0161417 0.0797475 0.101536 -0.0186525 0.0322823 0.104971 -0.0149672 -0.0119694 -0.00563498 -0.090068 0.112522 -0.00992165 0.114645 0.089312 -0.0708509 0.0339618 0.0680406 -0.0243715 0.149169 0.0140096 0.0730907 -0.210002 -0.267101 0.0304147 0.0850122 0.106703 -0.0172025 0.0177613 -0.0344856 0.0353913 -0.000979712 0.0307059 -0.0844891 -0.0219122 -0.0690205 0.053996 0.0125413 0.0440156 -0.0219572 -0.0863507 0.0228009 0.0210906 0.00398064 0.0609445 -0.0206009 -0.0595387 -0.106103 0.10564 0.237132 0.244248 0.0420117 0.125594 0.121946 0.0859144 0.00744342 0.0458639 0.111546 0.0719898 0.00919499 -0.0836889 -0.174383 0.0470406 0.045952 0.107968 -0.0157233 -0.0578769 -0.0284281 0.244527 0.225826 0.251453 -0.036318 -0.0179097 0.0447888 0.0567574 -0.0572549 -0.025153 -0.0975275 -0.028237 -0.0318479 -0.0543198 -0.0875585 -0.00586673 0.0646327 -0.141182 -0.0959879 -0.077916 -0.0422768 0.00792227 0.0712048 -0.0970333 -0.049627 -0.0366317 0.00805574 -0.0190728 -0.0247993 -0.00194692 -0.122129 -0.177599 -0.0364585 -0.0767154 0.00569538 -0.00659365 0.0165754 0.100538 -0.037351 -0.0298354 0.0490275 -0.00573245 0.0461538 0.00621248 -0.0167859 0.0647486 0.113689 -0.0165826 0.094158 -0.00141782 -0.0621776 -0.0737043 0.0953959 0.0832169 -0.0515044 0.0409316 0.148893 0.167687 0.224759 0.0678415 -0.00190039 -0.0349175 0.0278165 0.0575986 0.0715694 -0.0600286 0.0901859 0.0301216 0.0788841 0.0770652 0.174561 -0.0252038 -0.00780422 -0.0554497 0.00764722 -0.0313678 -0.00169227 -0.261069 0.0927661 -0.0739576 0.0482387 -0.0392083 0.0350699 -0.174426 -0.110107 0.0451529 0.0931635 0.0634714 0.12176 0.106285 0.0869361 0.0839198 0.142858 0.0945137 0.0628699 -0.0489571 -0.078972 -0.00270436 0.104824 0.140321 -0.0112629 0.101507 -0.0551261 0.0810272 0.052529 0.1357 0.0365445 -0.0261469 0.0270995 0.0651129 -0.0320145 -0.047079 -0.0297642 -0.0271289 -0.0805172 0.120841 -0.0440004 -0.144469 0.0298501 -0.0936705 -0.00284335 0.138532 -0.0726603 0.105115 -0.157538 0.0284032 0.201952 0.118704 0.109362 -0.0756107 -0.0957768 0.0785133 -0.0029231 0.0513739 -0.0396939 0.0646618 0.152931 -0.0534447 0.117203 0.0474189 0.0255118 0.130252 -0.0634447 -0.0332001 -0.140035 -0.258869 -0.143758 -0.162899 -0.100933 -0.108944 0.0531032 0.0495574 0.0888523 0.0241312 -0.0298854 -0.0539261 -0.0182583 -0.120046 -0.0807133 -0.226719 0.0217182 0.11534 -0.0889683 -0.0205114 -0.0509219 0.159151 0.118975 -0.0648646 0.0131012 -0.0559765 0.086043 0.0704797 -0.00947083 0.0417794 0.0744092 0.0776364 0.16085 -0.088247 0.104453 0.0611706 -0.0430662 -0.234583 -0.066883 -0.0932663 -0.110229 -0.0766327 -0.218133 -0.0240127 -0.14812 -0.326905 0.126139 0.0742504 0.143442 -0.204952 -0.0948552 -0.0215772 0.0652783 -0.0862938 -0.0613204 0.0749639 0.0292272 0.111057 -0.00793267 -0.0590069 -0.138095 0.0444659 -0.20803 -0.0906385 -0.137146 -0.0490984 0.0660908 -0.0936883 -0.164475 -0.000223058 -0.0605467 -0.0391408 -0.0215599 0.049068 0.0186324 -0.0111315 -0.0567781 0.197709 0.118771 -0.0159644 -0.139061 0.140661 0.154773 0.18084 0.0985624 -0.109125 0.24416 0.203894 0.0571686 -0.157161 -0.182236 0.0253226 0.0648654 0.00067398 0.156871 -0.0885622 0.117378 -0.173861 -0.00515518 -0.0991543 -0.0216197 0.0227693 -0.000310741 -0.162467 -0.0463146 -0.11534 -0.0521532 -0.345683 -0.116291 -0.050984 -0.203671 0.253303 0.332921 0.094924 0.0824972 0.0474021 -0.141239 0.0572369 -0.0589425 -0.00650354 0.0718239 -0.121365 -0.126787 -0.0938859 0.073725 -0.0486975 -0.201531 -0.0611869 -0.0247433 -0.110969 -0.0520617 -0.144638 -0.0151889 -0.0127683 -0.0477389 -0.0148021 0.0395879 -0.0482655 -0.190019 -0.188606 -0.211872 -0.0151791 0.0885521 0.0462525 0.0582359 0.067378 0.0891551 0.0754758 -0.128909 0.118854 -0.0399951 0.115401 -0.0242131 -0.0260196 0.0808808 0.237873 -0.098308 -0.0943968 0.123139 -0.0512609 0.14582 0.0287673 0.16863 0.199299 0.257181 0.289214 0.144752 0.0660938 0.201431 0.140362 0.145795 -0.0730966 -0.0343744 0.0471397 0.238689 0.211306 -0.0235107 0.0363086 0.0741014 0.0611735 0.170988 -0.0770725 -0.136434 -0.0270389 0.0507571 -0.00183794 -0.192865 0.249093 0.0346625 -0.0318555 0.0573024 -0.0530074 -0.113562 -0.0714548 -0.0668963 -0.119195 -0.153438 -0.148623 0.106114 0.127993 -0.0574372 0.0095644 -0.274569 0.0526497 0.088244 -0.0124436 0.0796989 0.0801121 0.0937509 -0.0818485 -0.0304579 0.0263118 -0.146875 -0.200716 -0.0419437 -0.0223686 0.0566888 0.0819154 0.00837834 -0.0283485 0.135581 0.0948482 0.098528 -0.040557 -0.105536 -0.0368769 -0.0348993 -0.0106322 -0.039513 -0.038293 0.0294768 -0.0686283 -0.00552373 0.058188 -0.130142 -0.104078 0.20296 0.131661 0.0205524 0.114496 -0.0175525 0.0641618 -0.0142902 -0.00997269 -0.073322 -0.224868 0.0344291 -0.13259 0.012957 -0.119803 0.0158487 -0.131624 -0.0080058 0.161491 0.0597285 -0.0435314 -0.254784 -0.0736918 0.144017 -0.127471 0.165981 -0.0343616 -0.00296705 -0.0957898 -0.0366059 0.173143 -0.0115349 -0.081775 -0.174883 -0.277654 -0.169022 -0.107873 -0.000879233 0.0445835 -0.0381951 0.054091 -0.0686598 0.0591359 0.129288 -0.0981931 -0.0301282 0.0314118 0.179735 0.103171 0.0524198 0.0444649 -0.130067 -0.0809311 0.0364676 0.0194326 0.0148693 0.012012 -0.0637474 -0.1199 -0.0242546 0.0326173 -0.0171626 -0.087428 0.0822914 -0.107239 -0.0963379 -0.0845924 0.119293 0.0310742 -0.0402921 -0.0350142 0.0243817 0.050842 -0.073851 -0.128968 -0.0108622 -0.0296823 -0.0188359 0.0549819 0.0399217 -0.0513797 -0.0500844 0.0638336 0.129282 0.347186 0.0694439 0.072977 0.0353844 -0.183639 -0.174884 -0.00581916 0.069376 0.076309 -0.242605 0.0234641 -0.110168 -0.126132 -0.301169 -0.0308101 -0.15616 -0.105489 -0.0124314 0.0686606 0.0571764 -0.0371821 -0.00657946 -0.0718612 -0.134112 0.0222064 -0.0107506 -0.0375355 -0.0969758 -0.105034 -0.00939056 -0.0874703 -0.0382684 -0.140349 0.0368228 -0.0945445 -0.0575228 -0.139318 -0.0173332 -0.067886 -0.0228535 0.0100705 -0.0709313 -0.183637 -0.0266215 0.181316 -0.199855 -0.12208 0.138789 0.0708541 -0.0904043 -0.143386 0.0348276 0.0359015 -0.166711 0.094648 0.124773 0.103591 -0.0570907 -0.133659 0.0858261 0.00224128 0.0640372 0.117557 0.135152 0.078095 0.0937373 0.114163 -0.135759 -0.134354 -0.0147934 0.0695756 0.0623142 -0.106939 0.0406497 0.171026 0.0149511 0.063332 -0.0984892 0.0126222 -0.179286 -0.135879 -0.0368043 0.0226759 -0.123941 -0.173132 -0.035965 0.194641 0.0722485 0.197442 -0.113557 -0.0867249 0.0625491 0.0106648 0.0426863 -0.234015 0.0960025 -0.0007956 -0.119526 -0.0608319 -0.00644399 0.0106446 -0.133769 0.0277569 0.134878 0.140252 -0.17879 0.0859566 0.1513 0.046475 0.031793 0.0297061 -0.0821021 -0.0658256 0.0576938 0.0814401 0.117642 0.00592964 -0.0451617 -0.00289625 -0.0490919 -0.015018 -0.00065967 -0.0291695 0.0721894 0.011221 -0.211758 -0.0550658 0.0925296 -0.0496 0.0265498 -0.00802417 0.0983317 0.208374 0.148765 -0.103602 0.120261 0.0842876 0.000243183 0.000981626 0.0465701 0.0178038 0.0644165 0.121493 0.0720912 0.118606 0.0903409 0.0654549 -0.0527702 -0.090288 0.0321329 0.127049 0.0783599 0.0825369 -0.0328775 -0.0972246 -0.0391416 0.00255148 -0.122517 0.180832 0.0696012 0.10819 0.188916 0.145987 -0.0347237 0.0688597 -0.00915046 0.0572902 -0.099584 -0.250548 -0.00233386 0.122854 0.0112981 -0.0444217 -0.112623 0.176031 0.127316 0.103029 0.258163 0.147675 0.0739218 0.140984 0.135631 0.0169808 0.431208 -0.0559888 -0.0717681 -0.067463 -0.0448157 -0.424601 -0.033885 -0.0942223 0.161017 -0.186009 0.175645 -0.157201 -0.212068 0.0608149 0.091505 0.132882 0.190605 -0.0632357 0.0710743 -0.0394223 -0.0425589 0.233341 0.00959058 0.00368982 -0.0395358 0.246507 0.209774 -0.0354065 0.0746383 -0.0691451 0.151452 0.0416283 0.0500626 0.111699 -0.073682 0.125408 0.182473 0.0208539 0.0808985 0.0169041 -0.0388257 -0.0482311 -0.130021 -0.0122142 0.0289112 -0.0863358 -0.0648767 -0.0178999 -0.0865292 -0.108573 -0.0761454 0.0388408 0.0680673 -0.10455 -0.137955 -0.0546865 -0.174523 -0.0114812 -0.16943 -0.0817297 -0.194056 0.103564 -0.0471278 -0.0601997 0.169178 0.337142 0.112618 0.100017 -0.034351 -0.0121423 0.0240419 -0.027215 -0.139556 -0.0946489 0.058347 -0.12751 -0.0742478 -0.0564841 0.0323868 0.00485443 0.115401 -0.0988545 -0.0477718 0.10504 0.0698858 0.108321 0.171446 0.208091 -0.000165298 -0.0803802 -0.288333 -0.143259 -0.106953 -0.0180778 -0.0209238 -0.176634 -0.243808 -0.127478 0.108333 0.21325 0.19425 0.0297361 